booster[0]:
0:[RiskH.office.id&importer.id<0.5] yes=1,no=2,missing=1
	1:[RiskH.HS6.Origin<0.5] yes=3,no=4,missing=3
		3:[RiskH.office.id&HS6<0.5] yes=7,no=8,missing=7
			7:[RiskH.importer.id<0.5] yes=15,no=16,missing=15
				15:leaf=-0.190891355
				16:leaf=-0.133655965
			8:[RiskH.importer.id<0.5] yes=17,no=18,missing=17
				17:leaf=-0.10510204
				18:leaf=0.0617283955
		4:[tariff.code<8.70200115e+09] yes=9,no=10,missing=9
			9:[gross.weight<193616.5] yes=19,no=20,missing=19
				19:leaf=0.16952841
				20:leaf=-0.0300000012
			10:[RiskH.importer.id<0.5] yes=21,no=22,missing=21
				21:leaf=-0.105105102
				22:leaf=0.0823529437
	2:[gross.weight<182429.5] yes=5,no=6,missing=5
		5:[tariff.code<8.70200115e+09] yes=11,no=12,missing=11
			11:[quantity<8227] yes=23,no=24,missing=23
				23:leaf=0.184650645
				24:leaf=-0.0133333346
			12:[RiskH.quantity<0.5] yes=25,no=26,missing=25
				25:leaf=0.0363143645
				26:leaf=0.166878983
		6:[RiskH.quantity<0.5] yes=13,no=14,missing=13
			13:[RiskH.office.id&HS6<0.5] yes=27,no=28,missing=27
				27:leaf=-0.116666667
				28:leaf=0.138461545
			14:[gross.weight<294817] yes=29,no=30,missing=29
				29:leaf=0.155555561
				30:leaf=0.00952380989
booster[1]:
0:[RiskH.office.id&importer.id<0.5] yes=1,no=2,missing=1
	1:[RiskH.HS6.Origin<0.5] yes=3,no=4,missing=3
		3:[RiskH.office.id&HS6<0.5] yes=7,no=8,missing=7
			7:[RiskH.importer.id<0.5] yes=15,no=16,missing=15
				15:leaf=-0.173431471
				16:leaf=-0.120870963
			8:[RiskH.quantity<0.5] yes=17,no=18,missing=17
				17:leaf=-0.112496212
				18:leaf=-0.00862381235
		4:[tariff.code<8.70200115e+09] yes=9,no=10,missing=9
			9:[gross.weight<193616.5] yes=19,no=20,missing=19
				19:leaf=0.153792292
				20:leaf=-0.027305726
			10:[RiskH.quantity<0.5] yes=21,no=22,missing=21
				21:leaf=-0.114746667
				22:leaf=-0.00133238488
	2:[gross.weight<182429.5] yes=5,no=6,missing=5
		5:[tariff.code<8.70200115e+09] yes=11,no=12,missing=11
			11:[quantity<8227] yes=23,no=24,missing=23
				23:leaf=0.167698145
				24:leaf=-0.0123559898
			12:[RiskH.quantity<0.5] yes=25,no=26,missing=25
				25:leaf=0.0327333547
				26:leaf=0.151478156
		6:[RiskH.quantity<0.5] yes=13,no=14,missing=13
			13:[RiskH.office.id&HS6<0.5] yes=27,no=28,missing=27
				27:leaf=-0.105685771
				28:leaf=0.129318759
			14:[gross.weight<294817] yes=29,no=30,missing=29
				29:leaf=0.142519489
				30:leaf=0.00875299051
booster[2]:
0:[RiskH.office.id&importer.id<0.5] yes=1,no=2,missing=1
	1:[RiskH.HS6.Origin<0.5] yes=3,no=4,missing=3
		3:[RiskH.office.id&HS6<0.5] yes=7,no=8,missing=7
			7:[RiskH.quantity<0.5] yes=15,no=16,missing=15
				15:leaf=-0.16282174
				16:leaf=-0.13780269
			8:[RiskH.importer.id<0.5] yes=17,no=18,missing=17
				17:leaf=-0.0876759887
				18:leaf=0.062168058
		4:[tariff.code<8.70200115e+09] yes=9,no=10,missing=9
			9:[gross.weight<193616.5] yes=19,no=20,missing=19
				19:leaf=0.141240388
				20:leaf=-0.024862254
			10:[RiskH.importer.id<0.5] yes=21,no=22,missing=21
				21:leaf=-0.0874601677
				22:leaf=0.0796158537
	2:[tariff.code<8.70200115e+09] yes=5,no=6,missing=5
		5:[gross.weight<305390.5] yes=11,no=12,missing=11
			11:[RiskH.office.id&HS6<0.5] yes=23,no=24,missing=23
				23:leaf=0.139207333
				24:leaf=0.168495402
			12:[tariff.code<8.45184512e+09] yes=25,no=26,missing=25
				25:leaf=0.105294101
				26:leaf=-0.104702272
		6:[RiskH.quantity<0.5] yes=13,no=14,missing=13
			13:[tariff.code<8.704e+09] yes=27,no=28,missing=27
				27:leaf=-0.0445472114
				28:leaf=0.120743833
			14:[gross.weight<272962] yes=29,no=30,missing=29
				29:leaf=0.140220061
				30:leaf=-0.0490725711
booster[3]:
0:[RiskH.office.id&importer.id<0.5] yes=1,no=2,missing=1
	1:[RiskH.HS6.Origin<0.5] yes=3,no=4,missing=3
		3:[RiskH.office.id&HS6<0.5] yes=7,no=8,missing=7
			7:[RiskH.importer.id<0.5] yes=15,no=16,missing=15
				15:leaf=-0.149551332
				16:leaf=-0.0973032266
			8:[RiskH.quantity<0.5] yes=17,no=18,missing=17
				17:leaf=-0.0959448069
				18:leaf=-0.00141855748
		4:[tariff.code<8.70321562e+09] yes=9,no=10,missing=9
			9:[gross.weight<193616.5] yes=19,no=20,missing=19
				19:leaf=0.128850773
				20:leaf=-0.0262456834
			10:[WUnitprice<26.2069302] yes=21,no=22,missing=21
				21:leaf=-0.0947931334
				22:leaf=0.0244200435
	2:[gross.weight<182429.5] yes=5,no=6,missing=5
		5:[tariff.code<8.51695002e+09] yes=11,no=12,missing=11
			11:[quantity<8227] yes=23,no=24,missing=23
				23:leaf=0.146145269
				24:leaf=-0.00782079902
			12:[RiskH.office.id&HS6<0.5] yes=25,no=26,missing=25
				25:leaf=0.047818508
				26:leaf=0.165618002
		6:[RiskH.quantity<0.5] yes=13,no=14,missing=13
			13:[RiskH.HS6.Origin<0.5] yes=27,no=28,missing=27
				27:leaf=-0.0944403633
				28:leaf=0.125857815
			14:[tariff.code<8.703232e+09] yes=29,no=30,missing=29
				29:leaf=0.127119243
				30:leaf=0.00480377395
booster[4]:
0:[RiskH.office.id&importer.id<0.5] yes=1,no=2,missing=1
	1:[RiskH.HS6.Origin<0.5] yes=3,no=4,missing=3
		3:[RiskH.office.id&HS6<0.5] yes=7,no=8,missing=7
			7:[RiskH.quantity<0.5] yes=15,no=16,missing=15
				15:leaf=-0.143658087
				16:leaf=-0.118225075
			8:[RiskH.importer.id<0.5] yes=17,no=18,missing=17
				17:leaf=-0.0742126927
				18:leaf=0.0614274628
		4:[tariff.code<8.70200115e+09] yes=9,no=10,missing=9
			9:[gross.weight<193616.5] yes=19,no=20,missing=19
				19:leaf=0.122260705
				20:leaf=-0.0203059111
			10:[RiskH.quantity<0.5] yes=21,no=22,missing=21
				21:leaf=-0.0919914916
				22:leaf=0.00879645068
	2:[tariff.code<8.51695002e+09] yes=5,no=6,missing=5
		5:[RiskH.HS6.Origin<0.5] yes=11,no=12,missing=11
			11:[RiskH.office.id&HS6<0.5] yes=23,no=24,missing=23
				23:leaf=0.105297759
				24:leaf=0.147880271
			12:leaf=0.150898501
		6:[RiskH.quantity<0.5] yes=13,no=14,missing=13
			13:[RiskH.office.id&HS6<0.5] yes=25,no=26,missing=25
				25:leaf=-0.0280706435
				26:leaf=0.159819692
			14:[gross.weight<272962] yes=27,no=28,missing=27
				27:leaf=0.125405475
				28:leaf=-0.047688242
booster[5]:
0:[RiskH.office.id&importer.id<0.5] yes=1,no=2,missing=1
	1:[RiskH.HS6.Origin<0.5] yes=3,no=4,missing=3
		3:[RiskH.importer.id<0.5] yes=7,no=8,missing=7
			7:[RiskH.office.id&HS6<0.5] yes=15,no=16,missing=15
				15:leaf=-0.133747146
				16:leaf=-0.0677777827
			8:[RiskH.office.id&country<0.5] yes=17,no=18,missing=17
				17:leaf=-0.0829015523
				18:leaf=0.0913123712
		4:[tariff.code<8.70200115e+09] yes=9,no=10,missing=9
			9:[gross.weight<120042.5] yes=19,no=20,missing=19
				19:leaf=0.117931545
				20:leaf=0.0183263589
			10:[WUnitprice<26.2069302] yes=21,no=22,missing=21
				21:leaf=-0.0772750378
				22:leaf=0.0306908488
	2:[tariff.code<8.51695002e+09] yes=5,no=6,missing=5
		5:[quantity<8227] yes=11,no=12,missing=11
			11:[RiskH.office.id&HS6<0.5] yes=23,no=24,missing=23
				23:leaf=0.117199324
				24:leaf=0.142211094
			12:[RiskH.quantity<0.5] yes=25,no=26,missing=25
				25:leaf=-0.117870428
				26:leaf=0.100016728
		6:[RiskH.office.id&HS6<0.5] yes=13,no=14,missing=13
			13:[RiskH.quantity<0.5] yes=27,no=28,missing=27
				27:leaf=-0.0252857991
				28:leaf=0.0944605693
			14:leaf=0.148191229
booster[6]:
0:[RiskH.office.id&importer.id<0.5] yes=1,no=2,missing=1
	1:[RiskH.HS6.Origin<0.5] yes=3,no=4,missing=3
		3:[RiskH.importer.id<0.5] yes=7,no=8,missing=7
			7:[RiskH.quantity<0.5] yes=15,no=16,missing=15
				15:leaf=-0.13074708
				16:leaf=-0.105771422
			8:[RiskH.quantity<0.5] yes=17,no=18,missing=17
				17:leaf=-0.0949116498
				18:leaf=-0.000499951711
		4:[tariff.code<8.70321562e+09] yes=9,no=10,missing=9
			9:[gross.weight<120042.5] yes=19,no=20,missing=19
				19:leaf=0.109883122
				20:leaf=0.0119002284
			10:[RiskH.declarant.id<0.5] yes=21,no=22,missing=21
				21:leaf=-0.0663842186
				22:leaf=0.093426317
	2:[gross.weight<182429.5] yes=5,no=6,missing=5
		5:[tariff.code<8.51695002e+09] yes=11,no=12,missing=11
			11:[quantity<8227] yes=23,no=24,missing=23
				23:leaf=0.123871796
				24:leaf=-0.0141286654
			12:[RiskH.office.id&HS6<0.5] yes=25,no=26,missing=25
				25:leaf=0.0390023217
				26:leaf=0.140737891
		6:[RiskH.quantity<0.5] yes=13,no=14,missing=13
			13:[RiskH.office.id&HS6<0.5] yes=27,no=28,missing=27
				27:leaf=-0.0869623348
				28:leaf=0.102390908
			14:[tariff.code<8.703232e+09] yes=29,no=30,missing=29
				29:leaf=0.105407707
				30:leaf=-0.00462858332
booster[7]:
0:[RiskH.office.id&importer.id<0.5] yes=1,no=2,missing=1
	1:[RiskH.HS6.Origin<0.5] yes=3,no=4,missing=3
		3:[RiskH.office.id&HS6<0.5] yes=7,no=8,missing=7
			7:[RiskH.quantity<0.5] yes=15,no=16,missing=15
				15:leaf=-0.125331357
				16:leaf=-0.0980279744
			8:[RiskH.office.id&country<0.5] yes=17,no=18,missing=17
				17:leaf=-0.0506545678
				18:leaf=0.103807233
		4:[tariff.code<8.70200115e+09] yes=9,no=10,missing=9
			9:[gross.weight<207639] yes=19,no=20,missing=19
				19:leaf=0.101557769
				20:leaf=-0.0338478126
			10:[RiskH.importer.id<0.5] yes=21,no=22,missing=21
				21:leaf=-0.060269922
				22:leaf=0.0865554139
	2:[tariff.code<8.51695002e+09] yes=5,no=6,missing=5
		5:[RiskH.HS6.Origin<0.5] yes=11,no=12,missing=11
			11:[RiskH.office.id&HS6<0.5] yes=23,no=24,missing=23
				23:leaf=0.0837993473
				24:leaf=0.130004629
			12:leaf=0.13347137
		6:[RiskH.quantity<0.5] yes=13,no=14,missing=13
			13:[RiskH.office.id&HS6<0.5] yes=25,no=26,missing=25
				25:leaf=-0.0236561839
				26:leaf=0.135974869
			14:[gross.weight<272962] yes=27,no=28,missing=27
				27:leaf=0.107117116
				28:leaf=-0.0529409647
booster[8]:
0:[RiskH.office.id&importer.id<0.5] yes=1,no=2,missing=1
	1:[RiskH.HS6.Origin<0.5] yes=3,no=4,missing=3
		3:[RiskH.importer.id<0.5] yes=7,no=8,missing=7
			7:[RiskH.office.id&HS6<0.5] yes=15,no=16,missing=15
				15:leaf=-0.117668048
				16:leaf=-0.0484855883
			8:[RiskH.office.id&country<0.5] yes=17,no=18,missing=17
				17:leaf=-0.0636536181
				18:leaf=0.0971068591
		4:[tariff.code<8.70200115e+09] yes=9,no=10,missing=9
			9:[gross.weight<120042.5] yes=19,no=20,missing=19
				19:leaf=0.0998227373
				20:leaf=0.0111998394
			10:[RiskH.office.id&HS6<0.5] yes=21,no=22,missing=21
				21:leaf=-0.056133192
				22:leaf=0.0888136253
	2:[gross.weight<182429.5] yes=5,no=6,missing=5
		5:[RiskH.office.id&HS6<0.5] yes=11,no=12,missing=11
			11:[RiskH.HS6.Origin<0.5] yes=23,no=24,missing=23
				23:leaf=0.0478830636
				24:leaf=0.133385792
			12:leaf=0.128773674
		6:[RiskH.quantity<0.5] yes=13,no=14,missing=13
			13:[RiskH.HS6.Origin<0.5] yes=25,no=26,missing=25
				25:leaf=-0.0799085721
				26:leaf=0.103616312
			14:[total.taxes<591.5] yes=27,no=28,missing=27
				27:leaf=-0.0514293276
				28:leaf=0.080152899
booster[9]:
0:[RiskH.office.id&importer.id<0.5] yes=1,no=2,missing=1
	1:[RiskH.HS6.Origin<0.5] yes=3,no=4,missing=3
		3:[RiskH.quantity<0.5] yes=7,no=8,missing=7
			7:[RiskH.office.id&country<0.5] yes=15,no=16,missing=15
				15:leaf=-0.116792656
				16:leaf=-0.0545576923
			8:[quantity<3130] yes=17,no=18,missing=17
				17:leaf=-0.088836804
				18:leaf=0.151500031
		4:[tariff.code<8.70200115e+09] yes=9,no=10,missing=9
			9:[RiskH.quantity<0.5] yes=19,no=20,missing=19
				19:leaf=0.05412779
				20:leaf=0.110477798
			10:[RiskH.quantity<0.5] yes=21,no=22,missing=21
				21:leaf=-0.0683817714
				22:leaf=0.0234859306
	2:[tariff.code<8.51695002e+09] yes=5,no=6,missing=5
		5:[RiskH.quantity<0.5] yes=11,no=12,missing=11
			11:[quantity<5774] yes=23,no=24,missing=23
				23:leaf=0.0920476541
				24:leaf=-0.15692842
			12:[fob.value<1162] yes=25,no=26,missing=25
				25:leaf=0.0401290022
				26:leaf=0.119429849
		6:[tariff.code<8.7046103e+09] yes=13,no=14,missing=13
			13:[RiskH.HS6.Origin<0.5] yes=27,no=28,missing=27
				27:leaf=-0.0173943676
				28:leaf=0.135321304
			14:[FOBCIFRatio<0.96502316] yes=29,no=30,missing=29
				29:leaf=0.134107724
				30:leaf=0.0123710074
booster[10]:
0:[RiskH.office.id&importer.id<0.5] yes=1,no=2,missing=1
	1:[RiskH.HS6.Origin<0.5] yes=3,no=4,missing=3
		3:[RiskH.importer.id<0.5] yes=7,no=8,missing=7
			7:[RiskH.office.id&HS6<0.5] yes=15,no=16,missing=15
				15:leaf=-0.109752588
				16:leaf=-0.0359972008
			8:[RiskH.quantity<0.5] yes=17,no=18,missing=17
				17:leaf=-0.0699161887
				18:leaf=0.0208807979
		4:[tariff.code<8.70321562e+09] yes=9,no=10,missing=9
			9:[gross.weight<120042.5] yes=19,no=20,missing=19
				19:leaf=0.0893193483
				20:leaf=-0.000990560977
			10:[gross.weight<1032.5] yes=21,no=22,missing=21
				21:leaf=0.0560599081
				22:leaf=-0.0572008491
	2:[tariff.code<8.51695002e+09] yes=5,no=6,missing=5
		5:[RiskH.quantity<0.5] yes=11,no=12,missing=11
			11:[quantity<5774] yes=23,no=24,missing=23
				23:leaf=0.0873845965
				24:leaf=-0.143560529
			12:[fob.value<1162] yes=25,no=26,missing=25
				25:leaf=0.0382173844
				26:leaf=0.115512289
		6:[RiskH.office.id&HS6<0.5] yes=13,no=14,missing=13
			13:[RiskH.quantity<0.5] yes=27,no=28,missing=27
				27:leaf=-0.0245321803
				28:leaf=0.0723685771
			14:leaf=0.124686532
booster[11]:
0:[RiskH.office.id&importer.id<0.5] yes=1,no=2,missing=1
	1:[RiskH.HS6.Origin<0.5] yes=3,no=4,missing=3
		3:[RiskH.quantity<0.5] yes=7,no=8,missing=7
			7:[RiskH.office.id&HS6<0.5] yes=15,no=16,missing=15
				15:leaf=-0.110021807
				16:leaf=-0.0483519435
			8:[quantity<2158] yes=17,no=18,missing=17
				17:leaf=-0.0801946446
				18:leaf=0.116372399
		4:[tariff.code<8.70200115e+09] yes=9,no=10,missing=9
			9:[tariff.code<5.95595981e+09] yes=19,no=20,missing=19
				19:leaf=0.0450424887
				20:leaf=0.104312159
			10:[RiskH.importer.id<0.5] yes=21,no=22,missing=21
				21:leaf=-0.0457268655
				22:leaf=0.0872800872
	2:[tariff.code<8.51695002e+09] yes=5,no=6,missing=5
		5:[RiskH.office.id&HS6<0.5] yes=11,no=12,missing=11
			11:[RiskH.quantity<0.5] yes=23,no=24,missing=23
				23:leaf=0.050978411
				24:leaf=0.104735754
			12:leaf=0.118361674
		6:[tariff.code<8.7046103e+09] yes=13,no=14,missing=13
			13:[RiskH.HS6.Origin<0.5] yes=25,no=26,missing=25
				25:leaf=-0.0169563703
				26:leaf=0.128978565
			14:[FOBCIFRatio<0.96502316] yes=27,no=28,missing=27
				27:leaf=0.126759037
				28:leaf=0.0111931926
booster[12]:
0:[RiskH.office.id&importer.id<0.5] yes=1,no=2,missing=1
	1:[RiskH.HS6.Origin<0.5] yes=3,no=4,missing=3
		3:[RiskH.tariff.code<0.5] yes=7,no=8,missing=7
			7:[RiskH.importer.id<0.5] yes=13,no=14,missing=13
				13:leaf=-0.102694057
				14:leaf=-0.0377043299
			8:[RiskH.quantity<0.5] yes=15,no=16,missing=15
				15:leaf=-0.0291633848
				16:leaf=0.0694178045
		4:[tariff.code<8.70200115e+09] yes=9,no=10,missing=9
			9:[RiskH.quantity<0.5] yes=17,no=18,missing=17
				17:leaf=0.0389946178
				18:leaf=0.0991513953
			10:[WUnitprice<26.2069302] yes=19,no=20,missing=19
				19:leaf=-0.0505667143
				20:leaf=0.0464411601
	2:[RiskH.office.id&HS6<0.5] yes=5,no=6,missing=5
		5:[RiskH.quantity<0.5] yes=11,no=12,missing=11
			11:[RiskH.HS6.Origin<0.5] yes=21,no=22,missing=21
				21:leaf=-0.0212457702
				22:leaf=0.121141329
			12:[gross.weight<272962] yes=23,no=24,missing=23
				23:leaf=0.0923504084
				24:leaf=-0.0267175175
		6:leaf=0.117606737
booster[13]:
0:[RiskH.office.id&importer.id<0.5] yes=1,no=2,missing=1
	1:[RiskH.office.id&country<0.5] yes=3,no=4,missing=3
		3:[RiskH.quantity<0.5] yes=7,no=8,missing=7
			7:[RiskH.office.id&HS6<0.5] yes=13,no=14,missing=13
				13:leaf=-0.104755521
				14:leaf=-0.0351976641
			8:[quantity<3473.5] yes=15,no=16,missing=15
				15:leaf=-0.0700153187
				16:leaf=0.137375802
		4:[RiskH.importer.id<0.5] yes=9,no=10,missing=9
			9:[RiskH.office.id&HS6<0.5] yes=17,no=18,missing=17
				17:leaf=-0.0186360534
				18:leaf=0.116424419
			10:[WUnitprice<3.98523474] yes=19,no=20,missing=19
				19:leaf=0.0700132251
				20:leaf=0.160255134
	2:[RiskH.office.id&HS6<0.5] yes=5,no=6,missing=5
		5:[RiskH.HS6.Origin<0.5] yes=11,no=12,missing=11
			11:[RiskH.quantity<0.5] yes=21,no=22,missing=21
				21:leaf=-0.0190871265
				22:leaf=0.0702077001
			12:[quantity<7247] yes=23,no=24,missing=23
				23:leaf=0.119704127
				24:leaf=0.019299224
		6:leaf=0.115221538
booster[14]:
0:[RiskH.office.id&importer.id<0.5] yes=1,no=2,missing=1
	1:[RiskH.HS6.Origin<0.5] yes=3,no=4,missing=3
		3:[RiskH.quantity<0.5] yes=7,no=8,missing=7
			7:[RiskH.office.id&HS6<0.5] yes=13,no=14,missing=13
				13:leaf=-0.101560645
				14:leaf=-0.0352788977
			8:[quantity<2158] yes=15,no=16,missing=15
				15:leaf=-0.067528449
				16:leaf=0.101335995
		4:[tariff.code<8.70321562e+09] yes=9,no=10,missing=9
			9:[gross.weight<120042.5] yes=17,no=18,missing=17
				17:leaf=0.0798516199
				18:leaf=-0.00640517985
			10:[tariff.code<8.70431744e+09] yes=19,no=20,missing=19
				19:leaf=-0.0396070816
				20:leaf=0.078923218
	2:[RiskH.office.id&HS6<0.5] yes=5,no=6,missing=5
		5:[RiskH.HS6.Origin<0.5] yes=11,no=12,missing=11
			11:[RiskH.quantity<0.5] yes=21,no=22,missing=21
				21:leaf=-0.0171546601
				22:leaf=0.0659837127
			12:[quantity<7247] yes=23,no=24,missing=23
				23:leaf=0.116986886
				24:leaf=0.0184051078
		6:leaf=0.113093846
booster[15]:
0:[RiskH.office.id&importer.id<0.5] yes=1,no=2,missing=1
	1:[RiskH.importer.id<0.5] yes=3,no=4,missing=3
		3:[RiskH.quantity<0.5] yes=7,no=8,missing=7
			7:[RiskH.office.id&country<0.5] yes=13,no=14,missing=13
				13:leaf=-0.099770233
				14:leaf=-0.0226881523
			8:[quantity<2605] yes=15,no=16,missing=15
				15:leaf=-0.0667995885
				16:leaf=0.0889898762
		4:[RiskH.quantity<0.5] yes=9,no=10,missing=9
			9:[RiskH.office.id&HS6<0.5] yes=17,no=18,missing=17
				17:leaf=-0.0450220406
				18:leaf=0.0857602656
			10:[quantity<229] yes=19,no=20,missing=19
				19:leaf=0.0208828654
				20:leaf=0.129391193
	2:[RiskH.office.id&HS6<0.5] yes=5,no=6,missing=5
		5:[RiskH.HS6.Origin<0.5] yes=11,no=12,missing=11
			11:[RiskH.office.id&country<0.5] yes=21,no=22,missing=21
				21:leaf=-0.00111634284
				22:leaf=0.123405598
			12:[quantity<7247] yes=23,no=24,missing=23
				23:leaf=0.114547275
				24:leaf=0.0175530836
		6:leaf=0.111180119
booster[16]:
0:[RiskH.office.id&importer.id<0.5] yes=1,no=2,missing=1
	1:[RiskH.HS6.Origin<0.5] yes=3,no=4,missing=3
		3:[RiskH.tariff.code<0.5] yes=7,no=8,missing=7
			7:[RiskH.quantity<0.5] yes=15,no=16,missing=15
				15:leaf=-0.0958854109
				16:leaf=-0.0580419861
			8:[RiskH.declarant.id<0.5] yes=17,no=18,missing=17
				17:leaf=0.0203304347
				18:leaf=0.196048722
		4:[tariff.code<8.70200115e+09] yes=9,no=10,missing=9
			9:[tariff.code<5.95595981e+09] yes=19,no=20,missing=19
				19:leaf=0.0387769938
				20:leaf=0.0980307385
			10:[RiskH.declarant.id<0.5] yes=21,no=22,missing=21
				21:leaf=-0.0255775936
				22:leaf=0.115478218
	2:[tariff.code<8.51695002e+09] yes=5,no=6,missing=5
		5:[RiskH.HS6.Origin<0.5] yes=11,no=12,missing=11
			11:[RiskH.office.id&HS6<0.5] yes=23,no=24,missing=23
				23:leaf=0.0507917888
				24:leaf=0.104620151
			12:leaf=0.109557353
		6:[tariff.code<8.7046103e+09] yes=13,no=14,missing=13
			13:[RiskH.HS6.Origin<0.5] yes=25,no=26,missing=25
				25:leaf=-0.0209320076
				26:leaf=0.110788882
			14:[FOBCIFRatio<0.96502316] yes=27,no=28,missing=27
				27:leaf=0.117885821
				28:leaf=0.00758635253
booster[17]:
0:[RiskH.office.id&HS6<0.5] yes=1,no=2,missing=1
	1:[RiskH.importer.id<0.5] yes=3,no=4,missing=3
		3:[RiskH.HS6.Origin<0.5] yes=7,no=8,missing=7
			7:[RiskH.declarant.id<0.5] yes=15,no=16,missing=15
				15:leaf=-0.0896042287
				16:leaf=0.00924572442
			8:[tariff.code<8.70200115e+09] yes=17,no=18,missing=17
				17:leaf=0.0574358702
				18:leaf=-0.0257201772
		4:[RiskH.office.id&country<0.5] yes=9,no=10,missing=9
			9:[RiskH.HS6.Origin<0.5] yes=19,no=20,missing=19
				19:leaf=-0.017455345
				20:leaf=0.0988776013
			10:[WUnitprice<3.98523474] yes=21,no=22,missing=21
				21:leaf=0.0767885372
				22:leaf=0.152169928
	2:[RiskH.quantity<0.5] yes=5,no=6,missing=5
		5:[RiskH.office.id&importer.id<0.5] yes=11,no=12,missing=11
			11:[tariff.code<8.51120026e+09] yes=23,no=24,missing=23
				23:leaf=0.0277268924
				24:leaf=-0.0585003458
			12:[fob.value<393390.5] yes=25,no=26,missing=25
				25:leaf=0.106700443
				26:leaf=0.0218701102
		6:[tariff.code<8.4715049e+09] yes=13,no=14,missing=13
			13:[cif.value<2635.5] yes=27,no=28,missing=27
				27:leaf=0.167769834
				28:leaf=0.103256576
			14:[tariff.code<8.70421709e+09] yes=29,no=30,missing=29
				29:leaf=0.0139752952
				30:leaf=0.154411897
booster[18]:
0:[RiskH.office.id&importer.id<0.5] yes=1,no=2,missing=1
	1:[RiskH.office.id&country<0.5] yes=3,no=4,missing=3
		3:[RiskH.quantity<0.5] yes=7,no=8,missing=7
			7:[RiskH.office.id&HS6<0.5] yes=15,no=16,missing=15
				15:leaf=-0.0926314741
				16:leaf=-0.0164491367
			8:[quantity<388.5] yes=17,no=18,missing=17
				17:leaf=-0.0621353947
				18:leaf=0.0347917452
		4:[RiskH.tariff.code<0.5] yes=9,no=10,missing=9
			9:[RiskH.importer.id<0.5] yes=19,no=20,missing=19
				19:leaf=0.00652345875
				20:leaf=0.0970169678
			10:[Unitprice<5.3003521] yes=21,no=22,missing=21
				21:leaf=0.013718294
				22:leaf=0.162068531
	2:[gross.weight<182429.5] yes=5,no=6,missing=5
		5:[RiskH.office.id&HS6<0.5] yes=11,no=12,missing=11
			11:[gross.weight<1046.5] yes=23,no=24,missing=23
				23:leaf=0.0952501521
				24:leaf=0.0260468852
			12:leaf=0.106533125
		6:[TaxRatio<1.30819046] yes=13,no=14,missing=13
			13:[tariff.code<8.00804506e+09] yes=25,no=26,missing=25
				25:leaf=0.0315164253
				26:leaf=-0.0737907514
			14:[TaxRatio<2.64554691] yes=27,no=28,missing=27
				27:leaf=0.137183324
				28:leaf=-0.00518759293
booster[19]:
0:[RiskH.importer.id<0.5] yes=1,no=2,missing=1
	1:[RiskH.office.id&HS6<0.5] yes=3,no=4,missing=3
		3:[RiskH.quantity<0.5] yes=7,no=8,missing=7
			7:[RiskH.office.id&country<0.5] yes=15,no=16,missing=15
				15:leaf=-0.0910202786
				16:leaf=-0.00583708147
			8:[quantity<1703] yes=17,no=18,missing=17
				17:leaf=-0.0567455292
				18:leaf=0.070789896
		4:[RiskH.quantity<0.5] yes=9,no=10,missing=9
			9:[RiskH.office.id&importer.id<0.5] yes=19,no=20,missing=19
				19:leaf=-0.024220502
				20:leaf=0.100121379
			10:[tariff.code<8.47874509e+09] yes=21,no=22,missing=21
				21:leaf=0.102913253
				22:leaf=0.0303521995
	2:[tariff.code<8.5164503e+09] yes=5,no=6,missing=5
		5:[RiskH.quantity<0.5] yes=11,no=12,missing=11
			11:[RiskH.office.id&HS6<0.5] yes=23,no=24,missing=23
				23:leaf=0.00365423085
				24:leaf=0.102171376
			12:[quantity<245.5] yes=25,no=26,missing=25
				25:leaf=0.0626456067
				26:leaf=0.142896518
		6:[RiskH.office.id&country<0.5] yes=13,no=14,missing=13
			13:[RiskH.office.id&importer.id<0.5] yes=27,no=28,missing=27
				27:leaf=-0.0402453542
				28:leaf=0.0454208516
			14:[WUnitprice<0.142749116] yes=29,no=30,missing=29
				29:leaf=-0.00713529577
				30:leaf=0.138736933
booster[20]:
0:[RiskH.office.id&importer.id<0.5] yes=1,no=2,missing=1
	1:[RiskH.tariff.code<0.5] yes=3,no=4,missing=3
		3:[RiskH.quantity<0.5] yes=7,no=8,missing=7
			7:[RiskH.declarant.id<0.5] yes=15,no=16,missing=15
				15:leaf=-0.0864562541
				16:leaf=0.00960267428
			8:[quantity<312.5] yes=17,no=18,missing=17
				17:leaf=-0.0567797534
				18:leaf=0.0291120261
		4:[RiskH.importer.id<0.5] yes=9,no=10,missing=9
			9:[RiskH.declarant.id<0.5] yes=19,no=20,missing=19
				19:leaf=0.0247081425
				20:leaf=0.150195092
			10:[RiskH.HS2<0.5] yes=21,no=22,missing=21
				21:leaf=0.104250804
				22:leaf=0.208591536
	2:[RiskH.quantity<0.5] yes=5,no=6,missing=5
		5:[quantity<2992] yes=11,no=12,missing=11
			11:[gross.weight<1046.5] yes=23,no=24,missing=23
				23:leaf=0.0995251089
				24:leaf=0.0143527612
			12:[RiskH.office.id&HS6<0.5] yes=25,no=26,missing=25
				25:leaf=-0.131509155
				26:leaf=0.0664471462
		6:[gross.weight<272962] yes=13,no=14,missing=13
			13:[TaxUnitquantity<44.7882385] yes=27,no=28,missing=27
				27:leaf=0.0990169719
				28:leaf=0.0597436726
			14:[tariff.code<8.70322176e+09] yes=29,no=30,missing=29
				29:leaf=0.0723137558
				30:leaf=-0.0677044764
booster[21]:
0:[RiskH.HS6.Origin<0.5] yes=1,no=2,missing=1
	1:[RiskH.importer.id<0.5] yes=3,no=4,missing=3
		3:[RiskH.office.id&HS6<0.5] yes=7,no=8,missing=7
			7:[RiskH.quantity<0.5] yes=15,no=16,missing=15
				15:leaf=-0.0861730576
				16:leaf=-0.0478855483
			8:[tariff.code<8.48060006e+09] yes=17,no=18,missing=17
				17:leaf=0.0518190973
				18:leaf=-0.0287954416
		4:[RiskH.HS2<0.5] yes=9,no=10,missing=9
			9:[RiskH.declarant.id<0.5] yes=19,no=20,missing=19
				19:leaf=-0.00372363813
				20:leaf=0.126235768
			10:[quantity<1701] yes=21,no=22,missing=21
				21:leaf=0.139248401
				22:leaf=0.0196346194
	2:[tariff.code<8.70321562e+09] yes=5,no=6,missing=5
		5:[gross.weight<120042.5] yes=11,no=12,missing=11
			11:[quantity<6487] yes=23,no=24,missing=23
				23:leaf=0.0894319266
				24:leaf=-0.046251826
			12:[tariff.code<7.30945434e+09] yes=25,no=26,missing=25
				25:leaf=-0.0334325507
				26:leaf=0.0835620388
		6:[gross.weight<1032.5] yes=13,no=14,missing=13
			13:[tariff.code<8.70324224e+09] yes=27,no=28,missing=27
				27:leaf=-0.0116435988
				28:leaf=0.143410727
			14:[RiskH.declarant.id<0.5] yes=29,no=30,missing=29
				29:leaf=-0.0189917721
				30:leaf=0.119778387
booster[22]:
0:[RiskH.office.id&country<0.5] yes=1,no=2,missing=1
	1:[RiskH.office.id&importer.id<0.5] yes=3,no=4,missing=3
		3:[RiskH.quantity<0.5] yes=7,no=8,missing=7
			7:[RiskH.office.id&HS6<0.5] yes=15,no=16,missing=15
				15:leaf=-0.0833418891
				16:leaf=-0.00938609615
			8:[quantity<4169] yes=17,no=18,missing=17
				17:leaf=-0.0425249785
				18:leaf=0.114201926
		4:[RiskH.HS6.Origin<0.5] yes=9,no=10,missing=9
			9:[gross.weight<1027] yes=19,no=20,missing=19
				19:leaf=0.0878476724
				20:leaf=0.00238090381
			10:[quantity<6239.5] yes=21,no=22,missing=21
				21:leaf=0.106031217
				22:leaf=0.014288119
	2:[RiskH.quantity<0.5] yes=5,no=6,missing=5
		5:[RiskH.declarant.id<0.5] yes=11,no=12,missing=11
			11:[RiskH.office.id&importer.id<0.5] yes=23,no=24,missing=23
				23:leaf=0.00166585424
				24:leaf=0.112352841
			12:[tariff.code<8.4672e+09] yes=25,no=26,missing=25
				25:leaf=0.174504131
				26:leaf=0.0449722223
		6:[TaxUnitquantity<378.333313] yes=13,no=14,missing=13
			13:[gross.weight<94047] yes=27,no=28,missing=27
				27:leaf=0.111877836
				28:leaf=0.0239968542
			14:[RiskH.office.id&HS6<0.5] yes=29,no=30,missing=29
				29:leaf=0.00262903259
				30:leaf=0.111926638
booster[23]:
0:[RiskH.importer.id<0.5] yes=1,no=2,missing=1
	1:[RiskH.HS6.Origin<0.5] yes=3,no=4,missing=3
		3:[RiskH.declarant.id<0.5] yes=7,no=8,missing=7
			7:[RiskH.quantity<0.5] yes=15,no=16,missing=15
				15:leaf=-0.0810024664
				16:leaf=-0.0416663922
			8:[WUnitprice<80.462616] yes=17,no=18,missing=17
				17:leaf=0.0323917791
				18:leaf=0.135349065
		4:[RiskH.office.id&importer.id<0.5] yes=9,no=10,missing=9
			9:[total.taxes<489] yes=19,no=20,missing=19
				19:leaf=0.0883093625
				20:leaf=0.0128417956
			10:[quantity<6153.5] yes=21,no=22,missing=21
				21:leaf=0.107363179
				22:leaf=0.0134814577
	2:[RiskH.office.id&HS6<0.5] yes=5,no=6,missing=5
		5:[RiskH.HS6.Origin<0.5] yes=11,no=12,missing=11
			11:[RiskH.HS2<0.5] yes=23,no=24,missing=23
				23:leaf=-0.0034957733
				24:leaf=0.108097188
			12:[gross.weight<110503] yes=25,no=26,missing=25
				25:leaf=0.107553497
				26:leaf=0.0264087953
		6:[TaxUnitquantity<9825] yes=13,no=14,missing=13
			13:[quantity<1836] yes=27,no=28,missing=27
				27:leaf=0.115795016
				28:leaf=0.0433635078
			14:[total.taxes<24068.5] yes=29,no=30,missing=29
				29:leaf=-0.0623496659
				30:leaf=0.00538409455
booster[24]:
0:[tariff.code<8.50630093e+09] yes=1,no=2,missing=1
	1:[RiskH.office.id&HS6<0.5] yes=3,no=4,missing=3
		3:[RiskH.importer.id<0.5] yes=7,no=8,missing=7
			7:[RiskH.declarant.id<0.5] yes=15,no=16,missing=15
				15:leaf=-0.0429094471
				16:leaf=0.0566268377
			8:[WUnitprice<5.99511147] yes=17,no=18,missing=17
				17:leaf=0.0137711605
				18:leaf=0.0780124813
		4:[cif.value<2030] yes=9,no=10,missing=9
			9:[tariff.code<8.48300032e+09] yes=19,no=20,missing=19
				19:leaf=0.178536519
				20:leaf=0.00471938727
			10:[gross.weight<216477.5] yes=21,no=22,missing=21
				21:leaf=0.0640641376
				22:leaf=-0.0429673083
	2:[tariff.code<8.7046103e+09] yes=5,no=6,missing=5
		5:[RiskH.HS6.Origin<0.5] yes=11,no=12,missing=11
			11:[RiskH.office.id&importer.id<0.5] yes=23,no=24,missing=23
				23:leaf=-0.0786922723
				24:leaf=-0.00569537142
			12:[tariff.code<8.70321562e+09] yes=25,no=26,missing=25
				25:leaf=0.0813510269
				26:leaf=-0.000251778692
		6:[RiskH.office.id&HS6<0.5] yes=13,no=14,missing=13
			13:[RiskH.office.id&importer.id<0.5] yes=27,no=28,missing=27
				27:leaf=0.00209318823
				28:leaf=0.107005052
			14:[gross.weight<146033.5] yes=29,no=30,missing=29
				29:leaf=0.149478748
				30:leaf=-0.0439505503
booster[25]:
0:[tariff.code<8.50630093e+09] yes=1,no=2,missing=1
	1:[RiskH.office.id&HS6<0.5] yes=3,no=4,missing=3
		3:[RiskH.HS6.Origin<0.5] yes=7,no=8,missing=7
			7:[RiskH.HS2<0.5] yes=15,no=16,missing=15
				15:leaf=-0.0386044681
				16:leaf=0.0589701608
			8:[gross.weight<98375] yes=17,no=18,missing=17
				17:leaf=0.0747073293
				18:leaf=-0.00319788791
		4:[cif.value<2030] yes=9,no=10,missing=9
			9:[tariff.code<8.48300032e+09] yes=19,no=20,missing=19
				19:leaf=0.165159136
				20:leaf=0.00444454327
			10:[RiskH.declarant.id<0.5] yes=21,no=22,missing=21
				21:leaf=0.0407393202
				22:leaf=0.133743718
	2:[tariff.code<8.7046103e+09] yes=5,no=6,missing=5
		5:[RiskH.office.id&country<0.5] yes=11,no=12,missing=11
			11:[RiskH.declarant.id<0.5] yes=23,no=24,missing=23
				23:leaf=-0.0750268325
				24:leaf=0.0291650686
			12:[total.taxes<373.5] yes=25,no=26,missing=25
				25:leaf=0.137293726
				26:leaf=0.0235001892
		6:[RiskH.office.id&HS6<0.5] yes=13,no=14,missing=13
			13:[RiskH.office.id&importer.id<0.5] yes=27,no=28,missing=27
				27:leaf=0.00188247475
				28:leaf=0.101601414
			14:[gross.weight<146033.5] yes=29,no=30,missing=29
				29:leaf=0.134446725
				30:leaf=-0.0415948741
booster[26]:
0:[RiskH.quantity<0.5] yes=1,no=2,missing=1
	1:[RiskH.office.id&importer.id<0.5] yes=3,no=4,missing=3
		3:[RiskH.office.id&country<0.5] yes=7,no=8,missing=7
			7:[RiskH.importer.id<0.5] yes=15,no=16,missing=15
				15:leaf=-0.0751911253
				16:leaf=-0.0130143883
			8:[Unitprice<5.35714912] yes=17,no=18,missing=17
				17:leaf=-0.0477546416
				18:leaf=0.0363638513
		4:[quantity<2992] yes=9,no=10,missing=9
			9:[cif.value<2043.5] yes=19,no=20,missing=19
				19:leaf=0.133227006
				20:leaf=0.0246314965
			10:[RiskH.office.id&HS6<0.5] yes=21,no=22,missing=21
				21:leaf=-0.11190255
				22:leaf=0.0577930212
	2:[quantity<312.5] yes=5,no=6,missing=5
		5:[RiskH.tariff.code<0.5] yes=11,no=12,missing=11
			11:[RiskH.office.id&country<0.5] yes=23,no=24,missing=23
				23:leaf=-0.0430661403
				24:leaf=0.0553594194
			12:[TaxRatio<11.2736092] yes=25,no=26,missing=25
				25:leaf=0.0875354931
				26:leaf=-0.0591339357
		6:[quantity<7867] yes=13,no=14,missing=13
			13:[tariff.code<8.50157005e+09] yes=27,no=28,missing=27
				27:leaf=0.0813482404
				28:leaf=0.0142953396
			14:[WUnitprice<97.1016541] yes=29,no=30,missing=29
				29:leaf=0.239249811
				30:leaf=0.00623296294
booster[27]:
0:[RiskH.quantity<0.5] yes=1,no=2,missing=1
	1:[RiskH.importer.id<0.5] yes=3,no=4,missing=3
		3:[RiskH.tariff.code<0.5] yes=7,no=8,missing=7
			7:[RiskH.office.id&country<0.5] yes=15,no=16,missing=15
				15:leaf=-0.0718285963
				16:leaf=0.00861892011
			8:[quantity<4677.5] yes=17,no=18,missing=17
				17:leaf=0.0473891459
				18:leaf=-0.101995073
		4:[quantity<3098] yes=9,no=10,missing=9
			9:[RiskH.declarant.id<0.5] yes=19,no=20,missing=19
				19:leaf=0.0110856108
				20:leaf=0.107644714
			10:[RiskH.HS6.Origin<0.5] yes=21,no=22,missing=21
				21:leaf=-0.103969671
				22:leaf=0.0631108284
	2:[quantity<291.5] yes=5,no=6,missing=5
		5:[RiskH.HS6.Origin<0.5] yes=11,no=12,missing=11
			11:[RiskH.tariff.code<0.5] yes=23,no=24,missing=23
				23:leaf=-0.0397090875
				24:leaf=0.0638591573
			12:[gross.weight<142632.5] yes=25,no=26,missing=25
				25:leaf=0.0845226124
				26:leaf=-0.0150573701
		6:[quantity<7867] yes=13,no=14,missing=13
			13:[gross.weight<251817] yes=27,no=28,missing=27
				27:leaf=0.0501686446
				28:leaf=-0.0549457744
			14:[WUnitprice<97.1016541] yes=29,no=30,missing=29
				29:leaf=0.206455857
				30:leaf=0.00580179831
booster[28]:
0:[tariff.code<8.50186035e+09] yes=1,no=2,missing=1
	1:[RiskH.office.id&HS6<0.5] yes=3,no=4,missing=3
		3:[RiskH.declarant.id<0.5] yes=7,no=8,missing=7
			7:[RiskH.importer.id<0.5] yes=15,no=16,missing=15
				15:leaf=-0.0331214517
				16:leaf=0.0282851737
			8:[WUnitprice<69.4187164] yes=17,no=18,missing=17
				17:leaf=0.0568278246
				18:leaf=0.129679859
		4:[cif.value<2017.5] yes=9,no=10,missing=9
			9:[FOBCIFRatio<0.931728423] yes=19,no=20,missing=19
				19:leaf=0.155009851
				20:leaf=0.0362766497
			10:[WUnitprice<0.019132629] yes=21,no=22,missing=21
				21:leaf=-0.0728727952
				22:leaf=0.0563500412
	2:[tariff.code<8.7046103e+09] yes=5,no=6,missing=5
		5:[RiskH.HS6.Origin<0.5] yes=11,no=12,missing=11
			11:[RiskH.office.id&importer.id<0.5] yes=23,no=24,missing=23
				23:leaf=-0.0694406182
				24:leaf=0.00360481744
			12:[tariff.code<8.70200115e+09] yes=25,no=26,missing=25
				25:leaf=0.0908843502
				26:leaf=0.0123541737
		6:[RiskH.office.id&HS6<0.5] yes=13,no=14,missing=13
			13:[RiskH.office.id&importer.id<0.5] yes=27,no=28,missing=27
				27:leaf=0.00879444648
				28:leaf=0.0968310758
			14:[cif.value<65855.5] yes=29,no=30,missing=29
				29:leaf=0.142877951
				30:leaf=0.0276518222
booster[29]:
0:[RiskH.quantity<0.5] yes=1,no=2,missing=1
	1:[RiskH.office.id&importer.id<0.5] yes=3,no=4,missing=3
		3:[RiskH.office.id&country<0.5] yes=7,no=8,missing=7
			7:[RiskH.office.id&HS6<0.5] yes=15,no=16,missing=15
				15:leaf=-0.067592226
				16:leaf=0.00200065458
			8:[total.taxes<12933] yes=17,no=18,missing=17
				17:leaf=0.00426050602
				18:leaf=0.0913951322
		4:[quantity<4139] yes=9,no=10,missing=9
			9:[RiskH.declarant.id<0.5] yes=19,no=20,missing=19
				19:leaf=0.0218161698
				20:leaf=0.123038672
			10:[gross.weight<671] yes=21,no=22,missing=21
				21:leaf=-0.00384295103
				22:leaf=-0.120714523
	2:[quantity<291.5] yes=5,no=6,missing=5
		5:[RiskH.office.id&country<0.5] yes=11,no=12,missing=11
			11:[RiskH.declarant.id<0.5] yes=23,no=24,missing=23
				23:leaf=-0.0353502445
				24:leaf=0.0696697459
			12:[RiskH.office.id&HS6<0.5] yes=25,no=26,missing=25
				25:leaf=0.0470538028
				26:leaf=0.123791791
		6:[quantity<7867] yes=13,no=14,missing=13
			13:[tariff.code<2.83674496e+09] yes=27,no=28,missing=27
				27:leaf=0.131177783
				28:leaf=0.0300464462
			14:[WUnitprice<97.1016541] yes=29,no=30,missing=29
				29:leaf=0.188304916
				30:leaf=0.00795532856
booster[30]:
0:[tariff.code<8.50186035e+09] yes=1,no=2,missing=1
	1:[RiskH.tariff.code<0.5] yes=3,no=4,missing=3
		3:[RiskH.office.id&importer.id<0.5] yes=7,no=8,missing=7
			7:[RiskH.importer.id<0.5] yes=15,no=16,missing=15
				15:leaf=-0.027726749
				16:leaf=0.0289221555
			8:[total.taxes<2662.5] yes=17,no=18,missing=17
				17:leaf=0.0830068141
				18:leaf=0.0261312015
		4:[FOBCIFRatio<0.949714184] yes=9,no=10,missing=9
			9:[RiskH.HS6<0.5] yes=19,no=20,missing=19
				19:leaf=0.0124485614
				20:leaf=0.0806153417
			10:[RiskH.HS6.Origin<0.5] yes=21,no=22,missing=21
				21:leaf=-0.0550572239
				22:leaf=0.042331811
	2:[tariff.code<8.7046103e+09] yes=5,no=6,missing=5
		5:[RiskH.HS6.Origin<0.5] yes=11,no=12,missing=11
			11:[RiskH.importer.id<0.5] yes=23,no=24,missing=23
				23:leaf=-0.0651135966
				24:leaf=-0.00489856675
			12:[tariff.code<8.70200115e+09] yes=25,no=26,missing=25
				25:leaf=0.0880831033
				26:leaf=0.0134081049
		6:[RiskH.office.id&HS6<0.5] yes=13,no=14,missing=13
			13:[SGD.DayofYear<100.5] yes=27,no=28,missing=27
				27:leaf=0.0558849946
				28:leaf=0.00226150267
			14:[gross.weight<29735] yes=29,no=30,missing=29
				29:leaf=0.128843293
				30:leaf=0.0160145443
booster[31]:
0:[RiskH.quantity<0.5] yes=1,no=2,missing=1
	1:[RiskH.HS6.Origin<0.5] yes=3,no=4,missing=3
		3:[RiskH.declarant.id<0.5] yes=7,no=8,missing=7
			7:[RiskH.HS2<0.5] yes=15,no=16,missing=15
				15:leaf=-0.0605474673
				16:leaf=0.039591372
			8:[Unitprice<15.1658287] yes=17,no=18,missing=17
				17:leaf=-0.019369619
				18:leaf=0.0699163601
		4:[quantity<5207] yes=9,no=10,missing=9
			9:[gross.weight<120040.5] yes=19,no=20,missing=19
				19:leaf=0.0590473413
				20:leaf=-0.00452626217
			10:[TaxUnitquantity<0.064664945] yes=21,no=22,missing=21
				21:leaf=-0.0374943838
				22:leaf=-0.159722969
	2:[quantity<1878.5] yes=5,no=6,missing=5
		5:[RiskH.office.id&HS6<0.5] yes=11,no=12,missing=11
			11:[RiskH.tariff.code<0.5] yes=23,no=24,missing=23
				23:leaf=-0.0258682575
				24:leaf=0.0667919144
			12:[gross.weight<214826.5] yes=25,no=26,missing=25
				25:leaf=0.0699263737
				26:leaf=-0.059121646
		6:[gross.weight<258538] yes=13,no=14,missing=13
			13:[quantity<7867] yes=27,no=28,missing=27
				27:leaf=0.0751744211
				28:leaf=0.165228009
			14:[Unitprice<0.734600663] yes=29,no=30,missing=29
				29:leaf=0.142586872
				30:leaf=-0.0667704493
booster[32]:
0:[gross.weight<231487.5] yes=1,no=2,missing=1
	1:[RiskH.office.id&importer.id<0.5] yes=3,no=4,missing=3
		3:[RiskH.declarant.id<0.5] yes=7,no=8,missing=7
			7:[RiskH.importer.id<0.5] yes=15,no=16,missing=15
				15:leaf=-0.0396132134
				16:leaf=0.0226247367
			8:[WUnitprice<78.3479843] yes=17,no=18,missing=17
				17:leaf=0.0470718108
				18:leaf=0.115863644
		4:[total.taxes<2880] yes=9,no=10,missing=9
			9:[quantity<8155.5] yes=19,no=20,missing=19
				19:leaf=0.0750719309
				20:leaf=-0.0755858272
			10:[total.taxes<5520] yes=21,no=22,missing=21
				21:leaf=-0.0440100171
				22:leaf=0.0556800626
	2:[RiskH.importer.id<0.5] yes=5,no=6,missing=5
		5:[RiskH.HS2<0.5] yes=11,no=12,missing=11
			11:[RiskH.quantity<0.5] yes=23,no=24,missing=23
				23:leaf=-0.0858187377
				24:leaf=-0.0624474064
			12:[FOBCIFRatio<0.806709945] yes=25,no=26,missing=25
				25:leaf=0.132116854
				26:leaf=-0.0583654344
		6:[TaxUnitquantity<6496.5] yes=13,no=14,missing=13
			13:[SGD.DayofYear<74.5] yes=27,no=28,missing=27
				27:leaf=0.0289180912
				28:leaf=-0.0597239733
			14:[tariff.code<8.47639501e+09] yes=29,no=30,missing=29
				29:leaf=-0.0182817113
				30:leaf=0.130775258
booster[33]:
0:[tariff.code<8.48065536e+09] yes=1,no=2,missing=1
	1:[RiskH.office.id&HS6<0.5] yes=3,no=4,missing=3
		3:[RiskH.HS2<0.5] yes=7,no=8,missing=7
			7:[RiskH.HS6.Origin<0.5] yes=15,no=16,missing=15
				15:leaf=-0.0221673269
				16:leaf=0.0560510047
			8:[TaxRatio<1.17401409] yes=17,no=18,missing=17
				17:leaf=0.0735371932
				18:leaf=0.00381316664
		4:[cif.value<2030] yes=9,no=10,missing=9
			9:[gross.weight<20449.5] yes=19,no=20,missing=19
				19:leaf=0.171490446
				20:leaf=0.0807717815
			10:[WUnitprice<0.019132629] yes=21,no=22,missing=21
				21:leaf=-0.0656664595
				22:leaf=0.0532135181
	2:[tariff.code<8.7046103e+09] yes=5,no=6,missing=5
		5:[RiskH.HS6.Origin<0.5] yes=11,no=12,missing=11
			11:[RiskH.office.id&importer.id<0.5] yes=23,no=24,missing=23
				23:leaf=-0.057857383
				24:leaf=0.00842867792
			12:[tariff.code<8.70200115e+09] yes=25,no=26,missing=25
				25:leaf=0.0914195105
				26:leaf=0.012704975
		6:[TaxUnitquantity<1.06769609] yes=13,no=14,missing=13
			13:[RiskH.quantity<0.5] yes=27,no=28,missing=27
				27:leaf=-0.0580096729
				28:leaf=0.0478013419
			14:[tariff.code<8.90254541e+09] yes=29,no=30,missing=29
				29:leaf=0.0194669496
				30:leaf=0.073973164
booster[34]:
0:[RiskH.quantity<0.5] yes=1,no=2,missing=1
	1:[gross.weight<201994.5] yes=3,no=4,missing=3
		3:[quantity<3201.5] yes=7,no=8,missing=7
			7:[RiskH.office.id&HS6<0.5] yes=15,no=16,missing=15
				15:leaf=-0.0301248282
				16:leaf=0.0409490354
			8:[RiskH.office.id&country<0.5] yes=17,no=18,missing=17
				17:leaf=-0.0970575139
				18:leaf=-0.0173108298
		4:[RiskH.office.id&importer.id<0.5] yes=9,no=10,missing=9
			9:[TaxRatio<0.000419247866] yes=19,no=20,missing=19
				19:leaf=0.0647321641
				20:leaf=-0.0812997967
			10:[TaxRatio<1.30819046] yes=21,no=22,missing=21
				21:leaf=-0.0466084816
				22:leaf=0.073007673
	2:[quantity<291.5] yes=5,no=6,missing=5
		5:[RiskH.office.id&country<0.5] yes=11,no=12,missing=11
			11:[RiskH.HS6.Origin<0.5] yes=23,no=24,missing=23
				23:leaf=-0.0263528284
				24:leaf=0.0608859248
			12:[WUnitprice<0.0262542795] yes=25,no=26,missing=25
				25:leaf=-0.0382706784
				26:leaf=0.0663308948
		6:[quantity<4169] yes=13,no=14,missing=13
			13:[gross.weight<296355] yes=27,no=28,missing=27
				27:leaf=0.0405979119
				28:leaf=-0.0601547323
			14:[quantity<10347] yes=29,no=30,missing=29
				29:leaf=0.0868382528
				30:leaf=0.188030824
booster[35]:
0:[gross.weight<231487.5] yes=1,no=2,missing=1
	1:[RiskH.office.id&country<0.5] yes=3,no=4,missing=3
		3:[RiskH.declarant.id<0.5] yes=7,no=8,missing=7
			7:[RiskH.importer.id<0.5] yes=15,no=16,missing=15
				15:leaf=-0.0337500982
				16:leaf=0.0215250105
			8:[FOBCIFRatio<0.703207493] yes=17,no=18,missing=17
				17:leaf=0.00926645845
				18:leaf=0.0705236346
		4:[RiskH.office.id&importer.id<0.5] yes=9,no=10,missing=9
			9:[RiskH.office.id<0.5] yes=19,no=20,missing=19
				19:leaf=0.0477994047
				20:leaf=-0.0817732438
			10:[total.taxes<52360] yes=21,no=22,missing=21
				21:leaf=0.111434631
				22:leaf=0.00897776801
	2:[RiskH.importer.id<0.5] yes=5,no=6,missing=5
		5:[RiskH.office.id&country<0.5] yes=11,no=12,missing=11
			11:[gross.weight<516689] yes=23,no=24,missing=23
				23:leaf=-0.0688805804
				24:leaf=-0.0906721354
			12:[TaxUnitquantity<1.72832286] yes=25,no=26,missing=25
				25:leaf=0.118040286
				26:leaf=-0.0384272672
		6:[SGD.DayofYear<74.5] yes=13,no=14,missing=13
			13:[gross.weight<435808.5] yes=27,no=28,missing=27
				27:leaf=0.100358203
				28:leaf=-0.0868598074
			14:[SGD.DayofYear<201] yes=29,no=30,missing=29
				29:leaf=-0.0771419182
				30:leaf=0.0281578749
booster[36]:
0:[RiskH.quantity<0.5] yes=1,no=2,missing=1
	1:[quantity<4602] yes=3,no=4,missing=3
		3:[gross.weight<201994.5] yes=7,no=8,missing=7
			7:[RiskH.HS6.Origin<0.5] yes=15,no=16,missing=15
				15:leaf=-0.0271469653
				16:leaf=0.0515643023
			8:[RiskH.office.id&importer.id<0.5] yes=17,no=18,missing=17
				17:leaf=-0.0737593919
				18:leaf=-0.0176350828
		4:[RiskH.office.id&country<0.5] yes=9,no=10,missing=9
			9:leaf=-0.103970006
			10:[gross.weight<1600] yes=19,no=20,missing=19
				19:leaf=0.0258761048
				20:leaf=-0.092129536
	2:[quantity<229] yes=5,no=6,missing=5
		5:[RiskH.office.id&HS6<0.5] yes=11,no=12,missing=11
			11:[RiskH.tariff.code<0.5] yes=21,no=22,missing=21
				21:leaf=-0.0245591067
				22:leaf=0.0555271506
			12:[FOBCIFRatio<0.790843248] yes=23,no=24,missing=23
				23:leaf=0.0874308795
				24:leaf=0.0219645277
		6:[quantity<4169] yes=13,no=14,missing=13
			13:[total.taxes<15733.5] yes=25,no=26,missing=25
				25:leaf=0.0202208459
				26:leaf=0.104853533
			14:[quantity<10347] yes=27,no=28,missing=27
				27:leaf=0.079762809
				28:leaf=0.173279867
booster[37]:
0:[gross.weight<261363] yes=1,no=2,missing=1
	1:[RiskH.office.id&importer.id<0.5] yes=3,no=4,missing=3
		3:[RiskH.tariff.code<0.5] yes=7,no=8,missing=7
			7:[RiskH.quantity<0.5] yes=15,no=16,missing=15
				15:leaf=-0.0373674668
				16:leaf=-0.00315104541
			8:[tariff.code<8.70240051e+09] yes=17,no=18,missing=17
				17:leaf=0.0444935821
				18:leaf=0.105479598
		4:[total.taxes<2785] yes=9,no=10,missing=9
			9:[quantity<8155.5] yes=19,no=20,missing=19
				19:leaf=0.072462365
				20:leaf=-0.0639075935
			10:[total.taxes<5520] yes=21,no=22,missing=21
				21:leaf=-0.0289708115
				22:leaf=0.0523476303
	2:[RiskH.importer.id<0.5] yes=5,no=6,missing=5
		5:[RiskH.office.id&country<0.5] yes=11,no=12,missing=11
			11:[gross.weight<516689] yes=23,no=24,missing=23
				23:leaf=-0.0668962896
				24:leaf=-0.0880962536
			12:[FOBCIFRatio<0.855748177] yes=25,no=26,missing=25
				25:leaf=0.0863718912
				26:leaf=-0.0718126893
		6:[TaxUnitquantity<4750] yes=13,no=14,missing=13
			13:[gross.weight<1165380] yes=27,no=28,missing=27
				27:leaf=-0.0442013219
				28:leaf=0.0707854927
			14:[TaxUnitquantity<9317.33398] yes=29,no=30,missing=29
				29:leaf=0.13684696
				30:leaf=-0.00474438025
booster[38]:
0:[tariff.code<8.48065536e+09] yes=1,no=2,missing=1
	1:[RiskH.office.id&HS6<0.5] yes=3,no=4,missing=3
		3:[RiskH.HS2<0.5] yes=7,no=8,missing=7
			7:[RiskH.HS6.Origin<0.5] yes=15,no=16,missing=15
				15:leaf=-0.0149114309
				16:leaf=0.0520912893
			8:[RiskH.office.id<0.5] yes=17,no=18,missing=17
				17:leaf=0.063569054
				18:leaf=-0.0550687201
		4:[cif.value<2030] yes=9,no=10,missing=9
			9:[gross.weight<20449.5] yes=19,no=20,missing=19
				19:leaf=0.159692734
				20:leaf=0.0743803307
			10:[quantity<1442.5] yes=21,no=22,missing=21
				21:leaf=0.0538494699
				22:leaf=-0.00615516258
	2:[gross.weight<1057.5] yes=5,no=6,missing=5
		5:[RiskH.HS6.Origin<0.5] yes=11,no=12,missing=11
			11:[tariff.code<8.7021015e+09] yes=23,no=24,missing=23
				23:leaf=-0.033568155
				24:leaf=0.0282809287
			12:[tariff.code<8.70333235e+09] yes=25,no=26,missing=25
				25:leaf=0.0613815747
				26:leaf=0.147816032
		6:[RiskH.importer.id<0.5] yes=13,no=14,missing=13
			13:[tariff.code<8.7046103e+09] yes=27,no=28,missing=27
				27:leaf=-0.0499464981
				28:leaf=0.0174077917
			14:[fob.value<1483] yes=29,no=30,missing=29
				29:leaf=0.142943799
				30:leaf=0.00997987483
booster[39]:
0:[RiskH.office.id&country<0.5] yes=1,no=2,missing=1
	1:[gross.weight<1035.5] yes=3,no=4,missing=3
		3:[RiskH.office.id&HS6<0.5] yes=7,no=8,missing=7
			7:[total.taxes<76650] yes=15,no=16,missing=15
				15:leaf=0.0142861921
				16:leaf=0.18364571
			8:[fob.value<41816.5] yes=17,no=18,missing=17
				17:leaf=0.104111806
				18:leaf=0.0213245153
		4:[RiskH.quantity<0.5] yes=9,no=10,missing=9
			9:[quantity<4602] yes=19,no=20,missing=19
				19:leaf=-0.0373382345
				20:leaf=-0.104223087
			10:[quantity<1351.5] yes=21,no=22,missing=21
				21:leaf=-0.0187058114
				22:leaf=0.0547097586
	2:[RiskH.office.id&importer.id<0.5] yes=5,no=6,missing=5
		5:[gross.weight<24118.5] yes=11,no=12,missing=11
			11:[FOBCIFRatio<0.694576144] yes=23,no=24,missing=23
				23:leaf=0.107472017
				24:leaf=0.0427176915
			12:[tariff.code<6.9094999e+09] yes=25,no=26,missing=25
				25:leaf=0.0475328006
				26:leaf=-0.0222281795
		6:[total.taxes<50101] yes=13,no=14,missing=13
			13:[WUnitprice<976.233093] yes=27,no=28,missing=27
				27:leaf=0.113089256
				28:leaf=0.0202758089
			14:leaf=0.0122553296
booster[40]:
0:[gross.weight<261363] yes=1,no=2,missing=1
	1:[RiskH.declarant.id<0.5] yes=3,no=4,missing=3
		3:[RiskH.office.id&importer.id<0.5] yes=7,no=8,missing=7
			7:[RiskH.importer.id<0.5] yes=15,no=16,missing=15
				15:leaf=-0.0261480641
				16:leaf=0.0236798748
			8:[total.taxes<2785] yes=17,no=18,missing=17
				17:leaf=0.0621061325
				18:leaf=0.0121096717
		4:[FOBCIFRatio<0.703207493] yes=9,no=10,missing=9
			9:[cif.value<25602] yes=19,no=20,missing=19
				19:leaf=-0.0261263438
				20:leaf=0.069020547
			10:[Unitprice<12.8731136] yes=21,no=22,missing=21
				21:leaf=0.0320442095
				22:leaf=0.0810376182
	2:[RiskH.office.id&importer.id<0.5] yes=5,no=6,missing=5
		5:[gross.weight<516689] yes=11,no=12,missing=11
			11:[tariff.code<8.70361702e+09] yes=23,no=24,missing=23
				23:leaf=-0.0644373521
				24:leaf=-0.0189828351
			12:[WUnitprice<0.00199789554] yes=25,no=26,missing=25
				25:leaf=-0.0141340839
				26:leaf=-0.089159064
		6:[TaxRatio<1.30819046] yes=13,no=14,missing=13
			13:[fob.value<38881.5] yes=27,no=28,missing=27
				27:leaf=-0.0661722943
				28:leaf=0.0520061739
			14:[TaxRatio<2.64554691] yes=29,no=30,missing=29
				29:leaf=0.155828252
				30:leaf=0.00317839207
booster[41]:
0:[gross.weight<261363] yes=1,no=2,missing=1
	1:[RiskH.office.id&HS6<0.5] yes=3,no=4,missing=3
		3:[RiskH.HS6.Origin<0.5] yes=7,no=8,missing=7
			7:[tariff.code<2.83844506e+09] yes=15,no=16,missing=15
				15:leaf=0.039977178
				16:leaf=-0.0234657582
			8:[total.taxes<490.5] yes=17,no=18,missing=17
				17:leaf=0.0963961408
				18:leaf=0.028846452
		4:[cif.value<2047.5] yes=9,no=10,missing=9
			9:[TaxUnitquantity<0.0469524637] yes=19,no=20,missing=19
				19:leaf=-0.00693595363
				20:leaf=0.129748717
			10:[RiskH.office.id&importer.id<0.5] yes=21,no=22,missing=21
				21:leaf=0.0281624235
				22:leaf=0.0949711725
	2:[RiskH.importer.id<0.5] yes=5,no=6,missing=5
		5:[RiskH.office.id&country<0.5] yes=11,no=12,missing=11
			11:[fob.value<1530] yes=23,no=24,missing=23
				23:leaf=0.0420511477
				24:leaf=-0.0681518912
			12:[gross.weight<286151] yes=25,no=26,missing=25
				25:leaf=-0.0665566474
				26:leaf=0.0874132141
		6:[TaxUnitquantity<4750] yes=13,no=14,missing=13
			13:[TaxUnitquantity<0.825605273] yes=27,no=28,missing=27
				27:leaf=0.0553396754
				28:leaf=-0.0391393788
			14:[TaxUnitquantity<9317.33398] yes=29,no=30,missing=29
				29:leaf=0.132542312
				30:leaf=-0.00104604242
booster[42]:
0:[RiskH.office.id&country<0.5] yes=1,no=2,missing=1
	1:[gross.weight<1035.5] yes=3,no=4,missing=3
		3:[RiskH.office.id&importer.id<0.5] yes=7,no=8,missing=7
			7:[TaxRatio<40.1554451] yes=15,no=16,missing=15
				15:leaf=0.0146365212
				16:leaf=0.270825356
			8:[TaxRatio<1.88065434] yes=17,no=18,missing=17
				17:leaf=0.0901488662
				18:leaf=0.00958658103
		4:[cif.value<2025.5] yes=9,no=10,missing=9
			9:[cif.value<1440.5] yes=19,no=20,missing=19
				19:leaf=0.208992869
				20:leaf=0.0453286096
			10:[RiskH.tariff.code<0.5] yes=21,no=22,missing=21
				21:leaf=-0.0326866694
				22:leaf=0.0400201939
	2:[RiskH.office.id&importer.id<0.5] yes=5,no=6,missing=5
		5:[total.taxes<412.5] yes=11,no=12,missing=11
			11:[TaxRatio<0.0446845964] yes=23,no=24,missing=23
				23:leaf=0.0564810596
				24:leaf=0.154744312
			12:[RiskH.office.id<0.5] yes=25,no=26,missing=25
				25:leaf=0.0323425606
				26:leaf=-0.0957358181
		6:[total.taxes<50101] yes=13,no=14,missing=13
			13:[WUnitprice<840.670105] yes=27,no=28,missing=27
				27:leaf=0.111036636
				28:leaf=0.0245578047
			14:leaf=0.00965092611
booster[43]:
0:[RiskH.importer.id<0.5] yes=1,no=2,missing=1
	1:[gross.weight<254186] yes=3,no=4,missing=3
		3:[RiskH.declarant.id<0.5] yes=7,no=8,missing=7
			7:[RiskH.office.id&importer.id<0.5] yes=15,no=16,missing=15
				15:leaf=-0.0217116773
				16:leaf=0.0357790478
			8:[quantity<2.5] yes=17,no=18,missing=17
				17:leaf=0.0907946602
				18:leaf=0.0362273902
		4:[RiskH.quantity<0.5] yes=9,no=10,missing=9
			9:[TaxRatio<0.00202654535] yes=19,no=20,missing=19
				19:leaf=-0.00380103639
				20:leaf=-0.0704300031
			10:[TaxUnitquantity<0.276620716] yes=21,no=22,missing=21
				21:leaf=0.0939981118
				22:leaf=-0.0433431491
	2:[RiskH.declarant.id<0.5] yes=5,no=6,missing=5
		5:[RiskH.HS6.Origin<0.5] yes=11,no=12,missing=11
			11:[tariff.code<2.83674496e+09] yes=23,no=24,missing=23
				23:leaf=0.067651771
				24:leaf=0.0125317723
			12:[quantity<960] yes=25,no=26,missing=25
				25:leaf=0.0960495099
				26:leaf=0.030978119
		6:[TaxRatio<0.173569113] yes=13,no=14,missing=13
			13:[quantity<3113.5] yes=27,no=28,missing=27
				27:leaf=0.139142916
				28:leaf=-0.0117220879
			14:[TaxRatio<0.277309] yes=29,no=30,missing=29
				29:leaf=-0.0334452428
				30:leaf=0.0751464367
booster[44]:
0:[RiskH.quantity<0.5] yes=1,no=2,missing=1
	1:[quantity<4602] yes=3,no=4,missing=3
		3:[gross.weight<201994.5] yes=7,no=8,missing=7
			7:[total.taxes<485.5] yes=15,no=16,missing=15
				15:leaf=0.0295442846
				16:leaf=-0.0182428639
			8:[RiskH.office.id&importer.id<0.5] yes=17,no=18,missing=17
				17:leaf=-0.0582818203
				18:leaf=-0.000339636608
		4:[FOBCIFRatio<0.564844728] yes=9,no=10,missing=9
			9:leaf=-0.0161972083
			10:[gross.weight<42.5] yes=19,no=20,missing=19
				19:leaf=-0.0311175492
				20:leaf=-0.101292007
	2:[quantity<229] yes=5,no=6,missing=5
		5:[RiskH.HS6.Origin<0.5] yes=11,no=12,missing=11
			11:[RiskH.HS2<0.5] yes=21,no=22,missing=21
				21:leaf=-0.0157897957
				22:leaf=0.051100105
			12:[tariff.code<8.70322586e+09] yes=23,no=24,missing=23
				23:leaf=0.0789028332
				24:leaf=0.00384611241
		6:[quantity<7867] yes=13,no=14,missing=13
			13:[total.taxes<6747.5] yes=25,no=26,missing=25
				25:leaf=0.0270689931
				26:leaf=0.083083123
			14:[WUnitprice<97.1016541] yes=27,no=28,missing=27
				27:leaf=0.153121099
				28:leaf=-0.0122516016
booster[45]:
0:[RiskH.office.id&HS6<0.5] yes=1,no=2,missing=1
	1:[RiskH.importer.id<0.5] yes=3,no=4,missing=3
		3:[RiskH.quantity<0.5] yes=7,no=8,missing=7
			7:[quantity<4604] yes=15,no=16,missing=15
				15:leaf=-0.0281268116
				16:leaf=-0.0977213681
			8:[quantity<1427.5] yes=17,no=18,missing=17
				17:leaf=-0.0125730857
				18:leaf=0.0539455786
		4:[RiskH.declarant.id<0.5] yes=9,no=10,missing=9
			9:[cif.value<1587.5] yes=19,no=20,missing=19
				19:leaf=0.16047813
				20:leaf=0.0150565794
			10:[SGD.DayofYear<95.5] yes=21,no=22,missing=21
				21:leaf=0.0211616773
				22:leaf=0.106697619
	2:[cif.value<2047.5] yes=5,no=6,missing=5
		5:[TaxUnitquantity<0.0469524637] yes=11,no=12,missing=11
			11:leaf=-0.0134823127
			12:[SGD.DayofYear<113.5] yes=23,no=24,missing=23
				23:leaf=0.0704182312
				24:leaf=0.133400679
		6:[RiskH.office.id&importer.id<0.5] yes=13,no=14,missing=13
			13:[tariff.code<8.71305523e+09] yes=25,no=26,missing=25
				25:leaf=0.0195499398
				26:leaf=0.119875275
			14:[cif.value<2484] yes=27,no=28,missing=27
				27:leaf=0.00448471727
				28:leaf=0.0974325612
booster[46]:
0:[RiskH.office.id&country<0.5] yes=1,no=2,missing=1
	1:[RiskH.declarant.id<0.5] yes=3,no=4,missing=3
		3:[cif.value<2025.5] yes=7,no=8,missing=7
			7:[TaxRatio<33.1470642] yes=15,no=16,missing=15
				15:leaf=0.040045917
				16:leaf=0.216150239
			8:[gross.weight<1031.5] yes=17,no=18,missing=17
				17:leaf=0.0162810963
				18:leaf=-0.0269406978
		4:[quantity<53.5] yes=9,no=10,missing=9
			9:[FOBCIFRatio<0.763396502] yes=19,no=20,missing=19
				19:leaf=0.031088531
				20:leaf=0.0881591961
			10:[total.taxes<188.5] yes=21,no=22,missing=21
				21:leaf=0.113497637
				22:leaf=0.0112229576
	2:[RiskH.office.id&importer.id<0.5] yes=5,no=6,missing=5
		5:[WUnitprice<0.0172027051] yes=11,no=12,missing=11
			11:[quantity<1104.5] yes=23,no=24,missing=23
				23:leaf=-0.0877022818
				24:leaf=0.0151929082
			12:[RiskH.office.id<0.5] yes=25,no=26,missing=25
				25:leaf=0.0420081615
				26:leaf=-0.0747428536
		6:[total.taxes<50101] yes=13,no=14,missing=13
			13:[WUnitprice<840.670105] yes=27,no=28,missing=27
				27:leaf=0.109328821
				28:leaf=0.0217749812
			14:leaf=0.00704079866
booster[47]:
0:[RiskH.HS6.Origin<0.5] yes=1,no=2,missing=1
	1:[RiskH.HS2<0.5] yes=3,no=4,missing=3
		3:[gross.weight<261363] yes=7,no=8,missing=7
			7:[tariff.code<2.80765491e+09] yes=15,no=16,missing=15
				15:leaf=0.0386614911
				16:leaf=-0.0157427024
			8:[RiskH.importer.id<0.5] yes=17,no=18,missing=17
				17:leaf=-0.0570167378
				18:leaf=0.00123497786
		4:[SGD.DayofYear<65.5] yes=9,no=10,missing=9
			9:[TaxRatio<0.172183692] yes=19,no=20,missing=19
				19:leaf=0.041059453
				20:leaf=0.142968237
			10:[WUnitprice<60.025238] yes=21,no=22,missing=21
				21:leaf=0.0230028369
				22:leaf=0.0925232321
	2:[quantity<5207] yes=5,no=6,missing=5
		5:[total.taxes<490.5] yes=11,no=12,missing=11
			11:[Unitprice<105165] yes=23,no=24,missing=23
				23:leaf=0.0950905234
				24:leaf=-0.0039426838
			12:[total.taxes<697.5] yes=25,no=26,missing=25
				25:leaf=-0.0257042553
				26:leaf=0.0504413247
		6:[RiskH.quantity<0.5] yes=13,no=14,missing=13
			13:[WUnitprice<22.8296356] yes=27,no=28,missing=27
				27:leaf=-0.127469242
				28:leaf=-0.0203292221
			14:[cif.value<3815.5] yes=29,no=30,missing=29
				29:leaf=-0.0201362725
				30:leaf=0.0692897141
booster[48]:
0:[RiskH.office.id&importer.id<0.5] yes=1,no=2,missing=1
	1:[RiskH.tariff.code<0.5] yes=3,no=4,missing=3
		3:[RiskH.quantity<0.5] yes=7,no=8,missing=7
			7:[quantity<2390.5] yes=15,no=16,missing=15
				15:leaf=-0.0194570962
				16:leaf=-0.0799899995
			8:[quantity<1681] yes=17,no=18,missing=17
				17:leaf=-0.00830620807
				18:leaf=0.0566942878
		4:[gross.weight<79627.5] yes=9,no=10,missing=9
			9:[FOBCIFRatio<0.744289041] yes=19,no=20,missing=19
				19:leaf=0.0847864375
				20:leaf=0.0364345349
			10:[RiskH.HS6.Origin<0.5] yes=21,no=22,missing=21
				21:leaf=-0.00992110558
				22:leaf=0.0918134525
	2:[cif.value<2044.5] yes=5,no=6,missing=5
		5:[tariff.code<8.41226496e+09] yes=11,no=12,missing=11
			11:[TaxRatio<3.51890993] yes=23,no=24,missing=23
				23:leaf=0.0898762196
				24:leaf=-0.000844164577
			12:leaf=0.128656492
		6:[cif.value<2536] yes=13,no=14,missing=13
			13:[RiskH.quantity<0.5] yes=25,no=26,missing=25
				25:leaf=-0.0942063779
				26:leaf=0.0261100233
			14:[RiskH.office.id&HS6<0.5] yes=27,no=28,missing=27
				27:leaf=0.0319915153
				28:leaf=0.096272938
booster[49]:
0:[RiskH.office.id&HS6<0.5] yes=1,no=2,missing=1
	1:[RiskH.office.id&country<0.5] yes=3,no=4,missing=3
		3:[gross.weight<328717] yes=7,no=8,missing=7
			7:[RiskH.declarant.id<0.5] yes=15,no=16,missing=15
				15:leaf=-0.0152294515
				16:leaf=0.037152186
			8:[cif.value<2244.5] yes=17,no=18,missing=17
				17:leaf=0.0821912736
				18:leaf=-0.0596951023
		4:[FOBCIFRatio<0.694582522] yes=9,no=10,missing=9
			9:[Unitprice<535.315308] yes=19,no=20,missing=19
				19:leaf=0.116083026
				20:leaf=0.0181499552
			10:[RiskH.office.id&importer.id<0.5] yes=21,no=22,missing=21
				21:leaf=0.0169905256
				22:leaf=0.0950360373
	2:[RiskH.office.id&importer.id<0.5] yes=5,no=6,missing=5
		5:[cif.value<2673] yes=11,no=12,missing=11
			11:[quantity<3522] yes=23,no=24,missing=23
				23:leaf=0.0832881555
				24:leaf=-0.0542352088
			12:[cif.value<2748] yes=25,no=26,missing=25
				25:leaf=-0.113434367
				26:leaf=0.0261448026
		6:[fob.value<393390.5] yes=13,no=14,missing=13
			13:[Unitprice<1.67743218] yes=27,no=28,missing=27
				27:leaf=0.0311486851
				28:leaf=0.100110747
			14:leaf=0.00883535575
booster[50]:
0:[RiskH.HS6.Origin<0.5] yes=1,no=2,missing=1
	1:[tariff.code<2.83844506e+09] yes=3,no=4,missing=3
		3:[tariff.code<1.30219494e+09] yes=7,no=8,missing=7
			7:[total.taxes<3164.5] yes=15,no=16,missing=15
				15:leaf=0.0144600272
				16:leaf=-0.0502829254
			8:[fob.value<1651.5] yes=17,no=18,missing=17
				17:leaf=0.137786135
				18:leaf=0.0451905653
		4:[RiskH.office.id&importer.id<0.5] yes=9,no=10,missing=9
			9:[gross.weight<1633.5] yes=19,no=20,missing=19
				19:leaf=0.00364414533
				20:leaf=-0.0255109724
			10:[cif.value<2044.5] yes=21,no=22,missing=21
				21:leaf=0.10911417
				22:leaf=0.0213496368
	2:[quantity<6349.5] yes=5,no=6,missing=5
		5:[RiskH.HS4<0.5] yes=11,no=12,missing=11
			11:[RiskH.office.id&importer.id<0.5] yes=23,no=24,missing=23
				23:leaf=0.0317866392
				24:leaf=0.0960203707
			12:[SGD.DayofYear<27.5] yes=25,no=26,missing=25
				25:leaf=0.00598482275
				26:leaf=0.111234568
		6:[RiskH.quantity<0.5] yes=13,no=14,missing=13
			13:leaf=-0.12043722
			14:leaf=0.0145489965
booster[51]:
0:[RiskH.importer.id<0.5] yes=1,no=2,missing=1
	1:[gross.weight<254186] yes=3,no=4,missing=3
		3:[RiskH.office.id&HS6<0.5] yes=7,no=8,missing=7
			7:[total.taxes<340.5] yes=15,no=16,missing=15
				15:leaf=0.0324902646
				16:leaf=-0.0148277646
			8:[cif.value<2673] yes=17,no=18,missing=17
				17:leaf=0.0693558306
				18:leaf=0.0218305048
		4:[gross.weight<516689] yes=9,no=10,missing=9
			9:[tariff.code<8.70421709e+09] yes=19,no=20,missing=19
				19:leaf=-0.0400182195
				20:leaf=0.0648383126
			10:[fob.value<2038.5] yes=21,no=22,missing=21
				21:leaf=0.00743618933
				22:leaf=-0.0776637346
	2:[total.taxes<472.5] yes=5,no=6,missing=5
		5:[tariff.code<3.40250496e+09] yes=11,no=12,missing=11
			11:[tariff.code<2.80804992e+09] yes=23,no=24,missing=23
				23:leaf=0.0731704161
				24:leaf=-0.0688118488
			12:[total.taxes<234] yes=25,no=26,missing=25
				25:leaf=0.0294951648
				26:leaf=0.0921270996
		6:[quantity<1707.5] yes=13,no=14,missing=13
			13:[fob.value<1527.5] yes=27,no=28,missing=27
				27:leaf=0.0912059695
				28:leaf=0.0207731389
			14:[RiskH.quantity<0.5] yes=29,no=30,missing=29
				29:leaf=-0.0612647533
				30:leaf=0.0757498741
booster[52]:
0:[RiskH.tariff.code<0.5] yes=1,no=2,missing=1
	1:[RiskH.quantity<0.5] yes=3,no=4,missing=3
		3:[quantity<3201.5] yes=7,no=8,missing=7
			7:[gross.weight<1635.5] yes=15,no=16,missing=15
				15:leaf=0.0144522432
				16:leaf=-0.019887222
			8:[total.taxes<120.5] yes=17,no=18,missing=17
				17:leaf=0.0793297589
				18:leaf=-0.0889885202
		4:[TaxUnitquantity<3.1232636] yes=9,no=10,missing=9
			9:[quantity<6776.5] yes=19,no=20,missing=19
				19:leaf=0.0321844034
				20:leaf=0.114004292
			10:[quantity<1268] yes=21,no=22,missing=21
				21:leaf=-0.00858170819
				22:leaf=0.0752604455
	2:[tariff.code<8.70240051e+09] yes=5,no=6,missing=5
		5:[tariff.code<8.50170982e+09] yes=11,no=12,missing=11
			11:[FOBCIFRatio<0.949714184] yes=23,no=24,missing=23
				23:leaf=0.0472580157
				24:leaf=-0.0449034199
			12:[RiskH.HS6.Origin<0.5] yes=25,no=26,missing=25
				25:leaf=-0.0497007929
				26:leaf=0.0809742212
		6:[fob.value<87388.5] yes=13,no=14,missing=13
			13:[TaxUnitquantity<1.92707205] yes=27,no=28,missing=27
				27:leaf=-0.0289259236
				28:leaf=0.127785146
			14:[tariff.code<8.7101993e+09] yes=29,no=30,missing=29
				29:leaf=0.0484501161
				30:leaf=-0.0753758848
booster[53]:
0:[RiskH.HS6.Origin<0.5] yes=1,no=2,missing=1
	1:[RiskH.HS2<0.5] yes=3,no=4,missing=3
		3:[RiskH.declarant.id<0.5] yes=7,no=8,missing=7
			7:[tariff.code<2.71019366e+09] yes=15,no=16,missing=15
				15:leaf=0.0289041307
				16:leaf=-0.0179596003
			8:[RiskH.office.id&importer.id<0.5] yes=17,no=18,missing=17
				17:leaf=0.0272041559
				18:leaf=0.0969691202
		4:[Unitprice<1.86041355] yes=9,no=10,missing=9
			9:[tariff.code<2.83579494e+09] yes=19,no=20,missing=19
				19:leaf=0.0445277281
				20:leaf=-0.0668245181
			10:[SGD.DayofYear<65.5] yes=21,no=22,missing=21
				21:leaf=0.0907897279
				22:leaf=0.0353702083
	2:[RiskH.HS4<0.5] yes=5,no=6,missing=5
		5:[total.taxes<490.5] yes=11,no=12,missing=11
			11:[TaxUnitquantity<370.5] yes=23,no=24,missing=23
				23:leaf=0.0810727999
				24:leaf=-0.0125585124
			12:[total.taxes<697.5] yes=25,no=26,missing=25
				25:leaf=-0.0425437056
				26:leaf=0.0315675549
		6:[SGD.DayofYear<27.5] yes=13,no=14,missing=13
			13:leaf=0.00476292567
			14:[WUnitprice<522.417969] yes=27,no=28,missing=27
				27:leaf=0.109554842
				28:leaf=0.0195562448
booster[54]:
0:[RiskH.office.id&importer.id<0.5] yes=1,no=2,missing=1
	1:[RiskH.importer.id<0.5] yes=3,no=4,missing=3
		3:[gross.weight<254186] yes=7,no=8,missing=7
			7:[total.taxes<18159.5] yes=15,no=16,missing=15
				15:leaf=-0.0129175112
				16:leaf=0.0232077148
			8:[gross.weight<516689] yes=17,no=18,missing=17
				17:leaf=-0.034121953
				18:leaf=-0.0712541491
		4:[RiskH.office.id<0.5] yes=9,no=10,missing=9
			9:[gross.weight<191.5] yes=19,no=20,missing=19
				19:leaf=0.0888031572
				20:leaf=0.0208786856
			10:[quantity<1471] yes=21,no=22,missing=21
				21:leaf=-0.0910217911
				22:leaf=0.0198015124
	2:[total.taxes<2785] yes=5,no=6,missing=5
		5:[quantity<8155.5] yes=11,no=12,missing=11
			11:[Unitprice<7602.68066] yes=23,no=24,missing=23
				23:leaf=0.0652092025
				24:leaf=0.0131650809
			12:[TaxUnitquantity<0.0427272059] yes=25,no=26,missing=25
				25:leaf=-0.070221886
				26:leaf=-0.0181973353
		6:[total.taxes<14724.5] yes=13,no=14,missing=13
			13:[gross.weight<42857.5] yes=27,no=28,missing=27
				27:leaf=-0.0358018428
				28:leaf=0.0517222546
			14:[Unitprice<30.2318993] yes=29,no=30,missing=29
				29:leaf=0.00234959438
				30:leaf=0.0895176306
booster[55]:
0:[RiskH.office.id&country<0.5] yes=1,no=2,missing=1
	1:[cif.value<2025.5] yes=3,no=4,missing=3
		3:[total.taxes<73097.5] yes=7,no=8,missing=7
			7:[cif.value<1440.5] yes=15,no=16,missing=15
				15:leaf=0.148450479
				16:leaf=0.0276553333
			8:[SGD.DayofYear<116.5] yes=17,no=18,missing=17
				17:leaf=0.0542076938
				18:leaf=0.292076558
		4:[RiskH.declarant.id<0.5] yes=9,no=10,missing=9
			9:[RiskH.quantity<0.5] yes=19,no=20,missing=19
				19:leaf=-0.0223326162
				20:leaf=-4.74869667e-05
			10:[Unitprice<102.378899] yes=21,no=22,missing=21
				21:leaf=0.00416654488
				22:leaf=0.0513550751
	2:[RiskH.office.id&importer.id<0.5] yes=5,no=6,missing=5
		5:[Unitprice<33961.625] yes=11,no=12,missing=11
			11:[total.taxes<412.5] yes=23,no=24,missing=23
				23:leaf=0.0677266568
				24:leaf=0.0157900006
			12:[tariff.code<6.95550976e+09] yes=25,no=26,missing=25
				25:leaf=0.157739982
				26:leaf=0.026250666
		6:[total.taxes<34003] yes=13,no=14,missing=13
			13:[cif.value<387194] yes=27,no=28,missing=27
				27:leaf=0.105906479
				28:leaf=0.0168145429
			14:leaf=0.004998622
booster[56]:
0:[RiskH.office.id&HS6<0.5] yes=1,no=2,missing=1
	1:[total.taxes<491.5] yes=3,no=4,missing=3
		3:[RiskH.HS6.Origin<0.5] yes=7,no=8,missing=7
			7:[cif.value<2508316] yes=15,no=16,missing=15
				15:leaf=0.00954747479
				16:leaf=0.244057685
			8:[SGD.DayofYear<263.5] yes=17,no=18,missing=17
				17:leaf=0.0853448808
				18:leaf=-0.0589379966
		4:[total.taxes<6175.5] yes=9,no=10,missing=9
			9:[total.taxes<3344.5] yes=19,no=20,missing=19
				19:leaf=-0.0111650601
				20:leaf=-0.048444245
			10:[tariff.code<8.71454925e+09] yes=21,no=22,missing=21
				21:leaf=0.00436834013
				22:leaf=0.101860099
	2:[FOBCIFRatio<0.794058561] yes=5,no=6,missing=5
		5:[FOBCIFRatio<0.774774969] yes=11,no=12,missing=11
			11:[gross.weight<1637] yes=23,no=24,missing=23
				23:leaf=0.082995899
				24:leaf=0.0194143727
			12:[SGD.DayofYear<244.5] yes=25,no=26,missing=25
				25:leaf=0.127016336
				26:leaf=0.00235953834
		6:[cif.value<2668.5] yes=13,no=14,missing=13
			13:[TaxUnitquantity<2.13891554] yes=27,no=28,missing=27
				27:leaf=-0.00997654535
				28:leaf=0.0854710415
			14:[fob.value<2340.5] yes=29,no=30,missing=29
				29:leaf=-0.128535584
				30:leaf=0.0107066324
booster[57]:
0:[RiskH.office.id&importer.id<0.5] yes=1,no=2,missing=1
	1:[gross.weight<486043.5] yes=3,no=4,missing=3
		3:[RiskH.importer.id<0.5] yes=7,no=8,missing=7
			7:[RiskH.office.id&country<0.5] yes=15,no=16,missing=15
				15:leaf=-0.0121445358
				16:leaf=0.0236538108
			8:[RiskH.office.id<0.5] yes=17,no=18,missing=17
				17:leaf=0.0234259833
				18:leaf=-0.0720808655
		4:[WUnitprice<0.00199789554] yes=9,no=10,missing=9
			9:[fob.value<2039.5] yes=19,no=20,missing=19
				19:leaf=0.155197263
				20:leaf=-0.0393289737
			10:[tariff.code<8.70321562e+09] yes=21,no=22,missing=21
				21:leaf=-0.0341405384
				22:leaf=-0.0821251795
	2:[gross.weight<995.5] yes=5,no=6,missing=5
		5:[Unitprice<49453.5938] yes=11,no=12,missing=11
			11:[quantity<3262.5] yes=23,no=24,missing=23
				23:leaf=0.0980723053
				24:leaf=-0.000270142133
			12:[TaxUnitquantity<2270] yes=25,no=26,missing=25
				25:leaf=-0.0930057094
				26:leaf=0.0537470542
		6:[gross.weight<7488.5] yes=13,no=14,missing=13
			13:[total.taxes<3000.5] yes=27,no=28,missing=27
				27:leaf=0.0226593483
				28:leaf=-0.0484517217
			14:[gross.weight<23176.5] yes=29,no=30,missing=29
				29:leaf=0.0822957307
				30:leaf=0.0274017211
booster[58]:
0:[RiskH.HS6.Origin<0.5] yes=1,no=2,missing=1
	1:[RiskH.HS2<0.5] yes=3,no=4,missing=3
		3:[total.taxes<389.5] yes=7,no=8,missing=7
			7:[WUnitprice<2.41080523] yes=15,no=16,missing=15
				15:leaf=0.0499906801
				16:leaf=0.000953073439
			8:[gross.weight<1626.5] yes=17,no=18,missing=17
				17:leaf=0.00697632506
				18:leaf=-0.0183038749
		4:[quantity<2.5] yes=9,no=10,missing=9
			9:[SGD.DayofYear<23] yes=19,no=20,missing=19
				19:leaf=-0.0766561553
				20:leaf=0.0994475633
			10:[SGD.DayofYear<65.5] yes=21,no=22,missing=21
				21:leaf=0.0647928938
				22:leaf=0.0132830916
	2:[quantity<5207] yes=5,no=6,missing=5
		5:[RiskH.HS4<0.5] yes=11,no=12,missing=11
			11:[RiskH.office.id&importer.id<0.5] yes=23,no=24,missing=23
				23:leaf=0.0276646912
				24:leaf=0.0930007249
			12:[SGD.DayofYear<35] yes=25,no=26,missing=25
				25:leaf=0.0185196493
				26:leaf=0.107342914
		6:[RiskH.quantity<0.5] yes=13,no=14,missing=13
			13:[WUnitprice<22.8296356] yes=27,no=28,missing=27
				27:leaf=-0.11418622
				28:leaf=-0.0131742228
			14:[Unitprice<0.527237296] yes=29,no=30,missing=29
				29:leaf=-0.0225975122
				30:leaf=0.0542494319
booster[59]:
0:[RiskH.tariff.code<0.5] yes=1,no=2,missing=1
	1:[RiskH.office.id&importer.id<0.5] yes=3,no=4,missing=3
		3:[gross.weight<486043.5] yes=7,no=8,missing=7
			7:[RiskH.office.id<0.5] yes=15,no=16,missing=15
				15:leaf=-0.00570950378
				16:leaf=-0.0791866928
			8:[WUnitprice<0.00199789554] yes=17,no=18,missing=17
				17:leaf=0.0341102146
				18:leaf=-0.0668993071
		4:[cif.value<2044] yes=9,no=10,missing=9
			9:[tariff.code<1.51420493e+09] yes=19,no=20,missing=19
				19:leaf=0.0107619604
				20:leaf=0.108476438
			10:[RiskH.office.id<0.5] yes=21,no=22,missing=21
				21:leaf=0.0162231009
				22:leaf=0.107546382
	2:[Unitprice<13081.2754] yes=5,no=6,missing=5
		5:[fob.value<15117] yes=11,no=12,missing=11
			11:[cif.value<6653] yes=23,no=24,missing=23
				23:leaf=0.0375876091
				24:leaf=-0.0336445123
			12:[total.taxes<652] yes=25,no=26,missing=25
				25:leaf=0.0205386262
				26:leaf=0.0941270292
		6:[fob.value<54554.5] yes=13,no=14,missing=13
			13:[Unitprice<29820.5] yes=27,no=28,missing=27
				27:leaf=-0.0121250749
				28:leaf=0.14268373
			14:[Unitprice<202334.656] yes=29,no=30,missing=29
				29:leaf=-0.0781945139
				30:leaf=0.0252701472
booster[60]:
0:[RiskH.office.id&HS6<0.5] yes=1,no=2,missing=1
	1:[RiskH.quantity<0.5] yes=3,no=4,missing=3
		3:[quantity<4195.5] yes=7,no=8,missing=7
			7:[total.taxes<488.5] yes=15,no=16,missing=15
				15:leaf=0.0214005988
				16:leaf=-0.0140839145
			8:[TaxUnitquantity<5.09370899] yes=17,no=18,missing=17
				17:leaf=-0.093445532
				18:leaf=-0.0184941422
		4:[quantity<229] yes=9,no=10,missing=9
			9:[cif.value<1587.5] yes=19,no=20,missing=19
				19:leaf=0.12203709
				20:leaf=-0.00854623318
			10:[quantity<7867] yes=21,no=22,missing=21
				21:leaf=0.0291958041
				22:leaf=0.118260622
	2:[tariff.code<6.90750003e+09] yes=5,no=6,missing=5
		5:[tariff.code<5.91094989e+09] yes=11,no=12,missing=11
			11:[Unitprice<565.905457] yes=23,no=24,missing=23
				23:leaf=0.0120567288
				24:leaf=0.0715450272
			12:[TaxUnitquantity<1283] yes=25,no=26,missing=25
				25:leaf=0.148934543
				26:leaf=-0.029734198
		6:[tariff.code<8.70514995e+09] yes=13,no=14,missing=13
			13:[RiskH.HS6.Origin<0.5] yes=27,no=28,missing=27
				27:leaf=-0.00162558432
				28:leaf=0.0688579306
			14:[quantity<110.5] yes=29,no=30,missing=29
				29:leaf=0.105755202
				30:leaf=-0.000975934614
booster[61]:
0:[RiskH.declarant.id<0.5] yes=1,no=2,missing=1
	1:[tariff.code<8.7046103e+09] yes=3,no=4,missing=3
		3:[tariff.code<8.48045005e+09] yes=7,no=8,missing=7
			7:[tariff.code<2.83844506e+09] yes=15,no=16,missing=15
				15:leaf=0.028383255
				16:leaf=-0.000305373163
			8:[total.taxes<505.5] yes=17,no=18,missing=17
				17:leaf=0.0122878207
				18:leaf=-0.0214747526
		4:[TaxUnitquantity<0.426053405] yes=9,no=10,missing=9
			9:[total.taxes<126] yes=19,no=20,missing=19
				19:leaf=0.0210903622
				20:leaf=-0.0748389587
			10:[SGD.DayofYear<107.5] yes=21,no=22,missing=21
				21:leaf=0.09207993
				22:leaf=0.0253126603
	2:[gross.weight<32918] yes=5,no=6,missing=5
		5:[gross.weight<22513.5] yes=11,no=12,missing=11
			11:[TaxRatio<0.2493117] yes=23,no=24,missing=23
				23:leaf=0.0499041229
				24:leaf=0.00628825277
			12:[total.taxes<12578] yes=25,no=26,missing=25
				25:leaf=-0.0651396587
				26:leaf=0.0388788246
		6:[tariff.code<2.00551053e+09] yes=13,no=14,missing=13
			13:leaf=-0.0727736652
			14:[tariff.code<8.70729933e+09] yes=27,no=28,missing=27
				27:leaf=0.0911259353
				28:leaf=-0.0310858469
booster[62]:
0:[RiskH.HS6.Origin<0.5] yes=1,no=2,missing=1
	1:[tariff.code<2.83844506e+09] yes=3,no=4,missing=3
		3:[FOBCIFRatio<0.624748409] yes=7,no=8,missing=7
			7:[SGD.DayofYear<201.5] yes=15,no=16,missing=15
				15:leaf=0.198276147
				16:leaf=-0.0321273543
			8:[tariff.code<1.30219494e+09] yes=17,no=18,missing=17
				17:leaf=-0.0152366003
				18:leaf=0.0354295522
		4:[tariff.code<3.21515008e+09] yes=9,no=10,missing=9
			9:[total.taxes<0.5] yes=19,no=20,missing=19
				19:leaf=0.048604086
				20:leaf=-0.0792128444
			10:[tariff.code<7.11754496e+09] yes=21,no=22,missing=21
				21:leaf=0.017265534
				22:leaf=-0.0101964287
	2:[RiskH.HS4<0.5] yes=5,no=6,missing=5
		5:[RiskH.office.id&importer.id<0.5] yes=11,no=12,missing=11
			11:[quantity<5207] yes=23,no=24,missing=23
				23:leaf=0.0251897778
				24:leaf=-0.0676055029
			12:[cif.value<196394] yes=25,no=26,missing=25
				25:leaf=0.098499015
				26:leaf=0.00321589666
		6:[SGD.DayofYear<35] yes=13,no=14,missing=13
			13:leaf=0.0189148802
			14:[WUnitprice<297.791687] yes=27,no=28,missing=27
				27:leaf=0.105684973
				28:leaf=0.0214751661
booster[63]:
0:[RiskH.office.id&importer.id<0.5] yes=1,no=2,missing=1
	1:[gross.weight<24834.5] yes=3,no=4,missing=3
		3:[RiskH.office.id<0.5] yes=7,no=8,missing=7
			7:[RiskH.office.id&country<0.5] yes=13,no=14,missing=13
				13:leaf=0.000450354448
				14:leaf=0.0329532996
			8:[TaxRatio<3.04960522e-05] yes=15,no=16,missing=15
				15:leaf=0.0349492505
				16:leaf=-0.0818283483
		4:[gross.weight<49619] yes=9,no=10,missing=9
			9:[gross.weight<30262.5] yes=17,no=18,missing=17
				17:leaf=-0.0275543574
				18:leaf=-0.0636292845
			10:[gross.weight<125560] yes=19,no=20,missing=19
				19:leaf=0.0433646552
				20:leaf=-0.0195750613
	2:[RiskH.office.id<0.5] yes=5,no=6,missing=5
		5:[gross.weight<41274.5] yes=11,no=12,missing=11
			11:[gross.weight<27845] yes=21,no=22,missing=21
				21:leaf=0.0255576428
				22:leaf=-0.0868796483
			12:[gross.weight<128004] yes=23,no=24,missing=23
				23:leaf=0.117071286
				24:leaf=0.0199505072
		6:leaf=0.106538907
booster[64]:
0:[RiskH.importer.id<0.5] yes=1,no=2,missing=1
	1:[gross.weight<516689] yes=3,no=4,missing=3
		3:[tariff.code<8.704e+09] yes=7,no=8,missing=7
			7:[total.taxes<15213.5] yes=15,no=16,missing=15
				15:leaf=-0.0104499338
				16:leaf=0.0202735998
			8:[fob.value<2221] yes=17,no=18,missing=17
				17:leaf=0.0717761889
				18:leaf=0.0108546894
		4:[fob.value<2038.5] yes=9,no=10,missing=9
			9:[fob.value<1974.5] yes=19,no=20,missing=19
				19:leaf=-0.0291595887
				20:leaf=0.14643681
			10:[tariff.code<8.70321562e+09] yes=21,no=22,missing=21
				21:leaf=-0.0203903541
				22:leaf=-0.0817759857
	2:[gross.weight<162.5] yes=5,no=6,missing=5
		5:[Unitprice<22.6078453] yes=11,no=12,missing=11
			11:[WUnitprice<60.003952] yes=23,no=24,missing=23
				23:leaf=0.0924466401
				24:leaf=-0.0872433633
			12:[TaxRatio<0.0566461124] yes=25,no=26,missing=25
				25:leaf=0.0246291999
				26:leaf=0.161200866
		6:[tariff.code<9.25694566e+09] yes=13,no=14,missing=13
			13:[RiskH.HS6.Origin<0.5] yes=27,no=28,missing=27
				27:leaf=0.0109358272
				28:leaf=0.0649164841
			14:[WUnitprice<3.21620297] yes=29,no=30,missing=29
				29:leaf=0.190970168
				30:leaf=-0.0496240221
booster[65]:
0:[RiskH.office.id&HS6<0.5] yes=1,no=2,missing=1
	1:[RiskH.quantity<0.5] yes=3,no=4,missing=3
		3:[quantity<4195.5] yes=7,no=8,missing=7
			7:[total.taxes<395.5] yes=15,no=16,missing=15
				15:leaf=0.0287021603
				16:leaf=-0.0096088713
			8:[TaxUnitquantity<5.09370899] yes=17,no=18,missing=17
				17:leaf=-0.0916268155
				18:leaf=-0.0177183971
		4:[quantity<229] yes=9,no=10,missing=9
			9:[cif.value<1587.5] yes=19,no=20,missing=19
				19:leaf=0.101302616
				20:leaf=-0.00808009785
			10:[quantity<7867] yes=21,no=22,missing=21
				21:leaf=0.0268965103
				22:leaf=0.110582136
	2:[FOBCIFRatio<0.794058561] yes=5,no=6,missing=5
		5:[TaxRatio<0.543500781] yes=11,no=12,missing=11
			11:[tariff.code<8.41391565e+09] yes=23,no=24,missing=23
				23:leaf=0.082929641
				24:leaf=0.0274496917
			12:[quantity<90.5] yes=25,no=26,missing=25
				25:leaf=0.0273607206
				26:leaf=-0.0317948572
		6:[TaxRatio<2.10993671] yes=13,no=14,missing=13
			13:[WUnitprice<0.0238890573] yes=27,no=28,missing=27
				27:leaf=-0.090619646
				28:leaf=0.00780566642
			14:[tariff.code<8.48415027e+09] yes=29,no=30,missing=29
				29:leaf=0.119774356
				30:leaf=-0.000767525344
booster[66]:
0:[RiskH.HS6.Origin<0.5] yes=1,no=2,missing=1
	1:[RiskH.declarant.id<0.5] yes=3,no=4,missing=3
		3:[tariff.code<8.704e+09] yes=7,no=8,missing=7
			7:[tariff.code<2.83844506e+09] yes=15,no=16,missing=15
				15:leaf=0.0221249536
				16:leaf=-0.0122829461
			8:[SGD.DayofYear<116.5] yes=17,no=18,missing=17
				17:leaf=0.0509331189
				18:leaf=0.00252652518
		4:[cif.value<1643] yes=9,no=10,missing=9
			9:[quantity<15.5] yes=19,no=20,missing=19
				19:leaf=-0.0111302454
				20:leaf=-0.0975331441
			10:[TaxUnitquantity<278.663086] yes=21,no=22,missing=21
				21:leaf=0.0179806314
				22:leaf=0.0568583719
	2:[RiskH.HS4<0.5] yes=5,no=6,missing=5
		5:[RiskH.office.id&importer.id<0.5] yes=11,no=12,missing=11
			11:[total.taxes<490.5] yes=23,no=24,missing=23
				23:leaf=0.0536472499
				24:leaf=0.00831709336
			12:[cif.value<196394] yes=25,no=26,missing=25
				25:leaf=0.0969127044
				26:leaf=0.000638110505
		6:[SGD.DayofYear<35] yes=13,no=14,missing=13
			13:leaf=0.0164930653
			14:[cif.value<262632.5] yes=27,no=28,missing=27
				27:leaf=0.1038661
				28:leaf=0.0231557917
booster[67]:
0:[RiskH.office.id&importer.id<0.5] yes=1,no=2,missing=1
	1:[gross.weight<516689] yes=3,no=4,missing=3
		3:[RiskH.office.id<0.5] yes=7,no=8,missing=7
			7:[RiskH.importer.id<0.5] yes=15,no=16,missing=15
				15:leaf=-0.00486768316
				16:leaf=0.0189598072
			8:[RiskH.HS6.Origin<0.5] yes=17,no=18,missing=17
				17:leaf=-0.0768173039
				18:leaf=0.0438939258
		4:[WUnitprice<0.00199789554] yes=9,no=10,missing=9
			9:[fob.value<2039.5] yes=19,no=20,missing=19
				19:leaf=0.139958501
				20:leaf=-0.0343698263
			10:[total.taxes<517.5] yes=21,no=22,missing=21
				21:leaf=0.0207988042
				22:leaf=-0.0730813816
	2:[gross.weight<995.5] yes=5,no=6,missing=5
		5:[Unitprice<49453.5938] yes=11,no=12,missing=11
			11:[quantity<3262.5] yes=23,no=24,missing=23
				23:leaf=0.0924607441
				24:leaf=-0.00364274322
			12:[TaxUnitquantity<2270] yes=25,no=26,missing=25
				25:leaf=-0.0895339027
				26:leaf=0.0502442494
		6:[gross.weight<7488.5] yes=13,no=14,missing=13
			13:[total.taxes<3000.5] yes=27,no=28,missing=27
				27:leaf=0.0155320857
				28:leaf=-0.0504494011
			14:[gross.weight<23176.5] yes=29,no=30,missing=29
				29:leaf=0.0749951378
				30:leaf=0.0235607121
booster[68]:
0:[RiskH.office.id&country<0.5] yes=1,no=2,missing=1
	1:[cif.value<2025.5] yes=3,no=4,missing=3
		3:[total.taxes<73097.5] yes=7,no=8,missing=7
			7:[fob.value<1356.5] yes=15,no=16,missing=15
				15:leaf=-0.0072528231
				16:leaf=0.0485437922
			8:[tariff.code<6.41095014e+09] yes=17,no=18,missing=17
				17:leaf=0.0378380083
				18:leaf=0.241136938
		4:[gross.weight<1035.5] yes=9,no=10,missing=9
			9:[WUnitprice<13.5100918] yes=19,no=20,missing=19
				19:leaf=-0.016413765
				20:leaf=0.0281471293
			10:[total.taxes<340.5] yes=21,no=22,missing=21
				21:leaf=0.0279411674
				22:leaf=-0.0119915465
	2:[RiskH.office.id&importer.id<0.5] yes=5,no=6,missing=5
		5:[FOBCIFRatio<0.694576144] yes=11,no=12,missing=11
			11:[SGD.DayofYear<78.5] yes=23,no=24,missing=23
				23:leaf=0.139872611
				24:leaf=0.0295254085
			12:[Unitprice<5010.82031] yes=25,no=26,missing=25
				25:leaf=0.00337804295
				26:leaf=0.0494237654
		6:[total.taxes<31804] yes=13,no=14,missing=13
			13:[cif.value<281624] yes=27,no=28,missing=27
				27:leaf=0.102750376
				28:leaf=0.0152016552
			14:leaf=0.00552290026
booster[69]:
0:[RiskH.tariff.code<0.5] yes=1,no=2,missing=1
	1:[fob.value<1686005] yes=3,no=4,missing=3
		3:[RiskH.quantity<0.5] yes=7,no=8,missing=7
			7:[quantity<2390.5] yes=15,no=16,missing=15
				15:leaf=-0.00309104822
				16:leaf=-0.0668730661
			8:[quantity<1703] yes=17,no=18,missing=17
				17:leaf=-0.00142330048
				18:leaf=0.0501580201
		4:[Unitprice<142308.531] yes=9,no=10,missing=9
			9:[FOBCIFRatio<0.86450249] yes=19,no=20,missing=19
				19:leaf=0.0399313644
				20:leaf=-0.0886928663
			10:[cif.value<4540069.5] yes=21,no=22,missing=21
				21:leaf=0.246094897
				22:leaf=-0.0570555925
	2:[tariff.code<2.10704666e+09] yes=5,no=6,missing=5
		5:[gross.weight<147171.5] yes=11,no=12,missing=11
			11:[RiskH.quantity<0.5] yes=23,no=24,missing=23
				23:leaf=0.018139448
				24:leaf=0.129096255
			12:leaf=-0.0529256575
		6:[tariff.code<5.60351488e+09] yes=13,no=14,missing=13
			13:[WUnitprice<1649.82312] yes=25,no=26,missing=25
				25:leaf=0.00914099254
				26:leaf=-0.128768682
			14:[tariff.code<6.9584e+09] yes=27,no=28,missing=27
				27:leaf=0.100970112
				28:leaf=0.0237768814
booster[70]:
0:[RiskH.HS6.Origin<0.5] yes=1,no=2,missing=1
	1:[total.taxes<6928.5] yes=3,no=4,missing=3
		3:[total.taxes<3344.5] yes=7,no=8,missing=7
			7:[cif.value<3493989.5] yes=15,no=16,missing=15
				15:leaf=-0.000773694774
				16:leaf=0.171220928
			8:[RiskH.declarant.id<0.5] yes=17,no=18,missing=17
				17:leaf=-0.0410302915
				18:leaf=0.0370596908
		4:[tariff.code<8.71454925e+09] yes=9,no=10,missing=9
			9:[cif.value<12425.5] yes=19,no=20,missing=19
				19:leaf=-0.00275694951
				20:leaf=0.0239962954
			10:[total.taxes<20430.5] yes=21,no=22,missing=21
				21:leaf=0.138838857
				22:leaf=0.0392273739
	2:[RiskH.HS4<0.5] yes=5,no=6,missing=5
		5:[RiskH.office.id&importer.id<0.5] yes=11,no=12,missing=11
			11:[cif.value<1990.5] yes=23,no=24,missing=23
				23:leaf=0.0808971375
				24:leaf=0.0119570224
			12:[cif.value<196394] yes=25,no=26,missing=25
				25:leaf=0.0954568759
				26:leaf=-0.00100161368
		6:[SGD.DayofYear<35] yes=13,no=14,missing=13
			13:leaf=0.0148569616
			14:[WUnitprice<169.499802] yes=27,no=28,missing=27
				27:leaf=0.102283895
				28:leaf=0.0235001203
booster[71]:
0:[RiskH.office.id&importer.id<0.5] yes=1,no=2,missing=1
	1:[RiskH.office.id<0.5] yes=3,no=4,missing=3
		3:[WUnitprice<0.0195241496] yes=7,no=8,missing=7
			7:[fob.value<2220.5] yes=13,no=14,missing=13
				13:leaf=-0.00822681189
				14:leaf=-0.0494416878
			8:[cif.value<2689.5] yes=15,no=16,missing=15
				15:leaf=0.0214171316
				16:leaf=-0.00373196951
		4:[RiskH.HS6.Origin<0.5] yes=9,no=10,missing=9
			9:[FOBCIFRatio<0.970811367] yes=17,no=18,missing=17
				17:leaf=-0.0798788816
				18:leaf=0.0352872722
			10:leaf=0.0403958149
	2:[RiskH.office.id<0.5] yes=5,no=6,missing=5
		5:[gross.weight<41274.5] yes=11,no=12,missing=11
			11:[gross.weight<27845] yes=19,no=20,missing=19
				19:leaf=0.020656174
				20:leaf=-0.0785910338
			12:[gross.weight<128004] yes=21,no=22,missing=21
				21:leaf=0.113625407
				22:leaf=0.01816733
		6:leaf=0.103875175
booster[72]:
0:[RiskH.office.id&HS6<0.5] yes=1,no=2,missing=1
	1:[RiskH.HS2<0.5] yes=3,no=4,missing=3
		3:[total.taxes<15213.5] yes=7,no=8,missing=7
			7:[total.taxes<2825.5] yes=15,no=16,missing=15
				15:leaf=-0.000758717943
				16:leaf=-0.0204380099
			8:[SGD.DayofYear<261.5] yes=17,no=18,missing=17
				17:leaf=0.010130058
				18:leaf=0.130507424
		4:[Unitprice<1.86041355] yes=9,no=10,missing=9
			9:[cif.value<3642.5] yes=19,no=20,missing=19
				19:leaf=-0.0780113414
				20:leaf=0.0390731543
			10:[WUnitprice<60.3158417] yes=21,no=22,missing=21
				21:leaf=0.0217194501
				22:leaf=0.0701387227
	2:[RiskH.office.id&importer.id<0.5] yes=5,no=6,missing=5
		5:[cif.value<1706] yes=11,no=12,missing=11
			11:[TaxRatio<21.5140209] yes=23,no=24,missing=23
				23:leaf=0.126606926
				24:leaf=-0.00150372891
			12:[FOBCIFRatio<0.794058561] yes=25,no=26,missing=25
				25:leaf=0.031948559
				26:leaf=0.000212738974
		6:[quantity<1555] yes=13,no=14,missing=13
			13:leaf=0.0952861682
			14:[quantity<3075] yes=27,no=28,missing=27
				27:leaf=-0.0482035205
				28:leaf=0.055421859
booster[73]:
0:[RiskH.declarant.id<0.5] yes=1,no=2,missing=1
	1:[tariff.code<8.704e+09] yes=3,no=4,missing=3
		3:[tariff.code<8.703232e+09] yes=7,no=8,missing=7
			7:[RiskH.HS6.Origin<0.5] yes=15,no=16,missing=15
				15:leaf=-0.0035751164
				16:leaf=0.0317950882
			8:[tariff.code<8.703232e+09] yes=17,no=18,missing=17
				17:leaf=-0
				18:leaf=-0.0139950281
		4:[fob.value<2221] yes=9,no=10,missing=9
			9:[Unitprice<861.166626] yes=19,no=20,missing=19
				19:leaf=0.0389367267
				20:leaf=0.149669334
			10:[TaxUnitquantity<0.431242526] yes=21,no=22,missing=21
				21:leaf=-0.0486921296
				22:leaf=0.0164719857
	2:[tariff.code<8.70944563e+09] yes=5,no=6,missing=5
		5:[tariff.code<8.70324224e+09] yes=11,no=12,missing=11
			11:[Unitprice<13.6569204] yes=23,no=24,missing=23
				23:leaf=-0.0164502393
				24:leaf=0.030582292
			12:[gross.weight<32843] yes=25,no=26,missing=25
				25:leaf=0.045024123
				26:leaf=0.159325138
		6:[RiskH.office.id&HS6<0.5] yes=13,no=14,missing=13
			13:[quantity<973.5] yes=27,no=28,missing=27
				27:leaf=-0.0818741471
				28:leaf=0.0306697879
			14:leaf=0.0756803229
booster[74]:
0:[RiskH.office.id&country<0.5] yes=1,no=2,missing=1
	1:[tariff.code<9.40545024e+09] yes=3,no=4,missing=3
		3:[cif.value<2025.5] yes=7,no=8,missing=7
			7:[total.taxes<73097.5] yes=15,no=16,missing=15
				15:leaf=0.0192727111
				16:leaf=0.161178812
			8:[cif.value<13764.5] yes=17,no=18,missing=17
				17:leaf=-0.0121632731
				18:leaf=0.00273241964
		4:[FOBCIFRatio<0.723034501] yes=9,no=10,missing=9
			9:[TaxRatio<0.989685357] yes=19,no=20,missing=19
				19:leaf=0.253090918
				20:leaf=-0.0131205684
			10:[cif.value<65019.5] yes=21,no=22,missing=21
				21:leaf=0.0625609905
				22:leaf=-0.0877350494
	2:[RiskH.office.id&importer.id<0.5] yes=5,no=6,missing=5
		5:[Unitprice<33961.625] yes=11,no=12,missing=11
			11:[TaxUnitquantity<378.333313] yes=23,no=24,missing=23
				23:leaf=0.0225248989
				24:leaf=-0.0182807297
			12:[gross.weight<8347.5] yes=25,no=26,missing=25
				25:leaf=0.109822981
				26:leaf=0.00497850962
		6:[total.taxes<28951.5] yes=13,no=14,missing=13
			13:[fob.value<236954.5] yes=27,no=28,missing=27
				27:leaf=0.100419603
				28:leaf=0.014933059
			14:leaf=0.00600456027
booster[75]:
0:[RiskH.office.id&importer.id<0.5] yes=1,no=2,missing=1
	1:[RiskH.office.id<0.5] yes=3,no=4,missing=3
		3:[gross.weight<516689] yes=7,no=8,missing=7
			7:[total.taxes<6455.5] yes=15,no=16,missing=15
				15:leaf=-0.00447747437
				16:leaf=0.0129805654
			8:[WUnitprice<0.00199789554] yes=17,no=18,missing=17
				17:leaf=0.0408206284
				18:leaf=-0.0598811284
		4:[RiskH.HS6.Origin<0.5] yes=9,no=10,missing=9
			9:[FOBCIFRatio<0.970811367] yes=19,no=20,missing=19
				19:leaf=-0.0773750991
				20:leaf=0.0321662389
			10:leaf=0.0365420841
	2:[cif.value<2044.5] yes=5,no=6,missing=5
		5:[tariff.code<8.41226496e+09] yes=11,no=12,missing=11
			11:[TaxRatio<3.51890993] yes=21,no=22,missing=21
				21:leaf=0.0703923777
				22:leaf=-0.0359894931
			12:leaf=0.113164999
		6:[cif.value<2536] yes=13,no=14,missing=13
			13:[WUnitprice<0.0183906667] yes=23,no=24,missing=23
				23:leaf=0.0478092097
				24:leaf=-0.0968873426
			14:[RiskH.office.id<0.5] yes=25,no=26,missing=25
				25:leaf=0.0203348473
				26:leaf=0.101184167
booster[76]:
0:[RiskH.importer.id<0.5] yes=1,no=2,missing=1
	1:[gross.weight<1068.5] yes=3,no=4,missing=3
		3:[quantity<1.5] yes=7,no=8,missing=7
			7:[SGD.DayofYear<162.5] yes=15,no=16,missing=15
				15:leaf=0.0716773793
				16:leaf=0.00450670114
			8:[WUnitprice<13.5224323] yes=17,no=18,missing=17
				17:leaf=-0.0198274236
				18:leaf=0.0178684257
		4:[total.taxes<340.5] yes=9,no=10,missing=9
			9:[TaxUnitquantity<301.5] yes=19,no=20,missing=19
				19:leaf=0.0193272587
				20:leaf=0.236798525
			10:[gross.weight<2078.5] yes=21,no=22,missing=21
				21:leaf=-0.0257631391
				22:leaf=-0.00373769365
	2:[quantity<1707.5] yes=5,no=6,missing=5
		5:[gross.weight<162.5] yes=11,no=12,missing=11
			11:[FOBCIFRatio<0.773819685] yes=23,no=24,missing=23
				23:leaf=0.128443584
				24:leaf=0.0342159718
			12:[fob.value<77152.5] yes=25,no=26,missing=25
				25:leaf=0.0230713692
				26:leaf=-0.0072932574
		6:[RiskH.quantity<0.5] yes=13,no=14,missing=13
			13:[TaxRatio<0.000928295485] yes=27,no=28,missing=27
				27:leaf=0.0856349245
				28:leaf=-0.0622426644
			14:[tariff.code<8.70323712e+09] yes=29,no=30,missing=29
				29:leaf=0.101946585
				30:leaf=-0.0136048486
booster[77]:
0:[RiskH.office.id&HS6<0.5] yes=1,no=2,missing=1
	1:[gross.weight<25947] yes=3,no=4,missing=3
		3:[TaxRatio<32.8473282] yes=7,no=8,missing=7
			7:[gross.weight<2133] yes=15,no=16,missing=15
				15:leaf=-0.00569796283
				16:leaf=0.012320485
			8:[tariff.code<8.70322688e+09] yes=17,no=18,missing=17
				17:leaf=0.183139116
				18:leaf=-0.00708618155
		4:[gross.weight<45246] yes=9,no=10,missing=9
			9:[gross.weight<30261.5] yes=19,no=20,missing=19
				19:leaf=-0.0275624152
				20:leaf=-0.0599350743
			10:[gross.weight<101741] yes=21,no=22,missing=21
				21:leaf=0.0462319851
				22:leaf=-0.0073453309
	2:[RiskH.office.id&importer.id<0.5] yes=5,no=6,missing=5
		5:[tariff.code<6.90750003e+09] yes=11,no=12,missing=11
			11:[tariff.code<5.95595981e+09] yes=23,no=24,missing=23
				23:leaf=0.0252208412
				24:leaf=0.112928107
			12:[gross.weight<173679] yes=25,no=26,missing=25
				25:leaf=0.0117875785
				26:leaf=-0.0632321984
		6:[quantity<1555] yes=13,no=14,missing=13
			13:leaf=0.0936727896
			14:[TaxUnitquantity<0.484683156] yes=27,no=28,missing=27
				27:leaf=0.0536633991
				28:leaf=-0.0481164269
booster[78]:
0:[RiskH.HS6.Origin<0.5] yes=1,no=2,missing=1
	1:[cif.value<2838041] yes=3,no=4,missing=3
		3:[total.taxes<6928.5] yes=7,no=8,missing=7
			7:[total.taxes<3344.5] yes=15,no=16,missing=15
				15:leaf=-0.00023684527
				16:leaf=-0.0315981172
			8:[tariff.code<8.7031552e+09] yes=17,no=18,missing=17
				17:leaf=-0.00185428117
				18:leaf=0.0247369278
		4:[cif.value<4545454] yes=9,no=10,missing=9
			9:[SGD.DayofYear<98] yes=19,no=20,missing=19
				19:leaf=0.298755705
				20:leaf=0.0671178922
			10:leaf=-0.0704065561
	2:[RiskH.HS4<0.5] yes=5,no=6,missing=5
		5:[tariff.code<6.5580503e+09] yes=11,no=12,missing=11
			11:[tariff.code<4.81665024e+09] yes=21,no=22,missing=21
				21:leaf=0.0343684927
				22:leaf=-0.1298877
			12:[tariff.code<8.65605018e+09] yes=23,no=24,missing=23
				23:leaf=0.074868314
				24:leaf=0.00277383206
		6:[SGD.DayofYear<35] yes=13,no=14,missing=13
			13:leaf=0.0108312955
			14:[WUnitprice<140.594177] yes=25,no=26,missing=25
				25:leaf=0.0999145061
				26:leaf=0.0241862666
booster[79]:
0:[RiskH.declarant.id<0.5] yes=1,no=2,missing=1
	1:[cif.value<1440.5] yes=3,no=4,missing=3
		3:[quantity<10.5] yes=7,no=8,missing=7
			7:leaf=0.00427116081
			8:[cif.value<1301.5] yes=15,no=16,missing=15
				15:leaf=0.0413402282
				16:leaf=0.203756019
		4:[SGD.DayofYear<115.5] yes=9,no=10,missing=9
			9:[tariff.code<8.70415565e+09] yes=17,no=18,missing=17
				17:leaf=0.00156560296
				18:leaf=0.0416828357
			10:[cif.value<2689.5] yes=19,no=20,missing=19
				19:leaf=0.00911845919
				20:leaf=-0.0111976797
	2:[RiskH.office.id&importer.id<0.5] yes=5,no=6,missing=5
		5:[tariff.code<8.70944563e+09] yes=11,no=12,missing=11
			11:[tariff.code<8.70324224e+09] yes=21,no=22,missing=21
				21:leaf=0.0139069455
				22:leaf=0.0692931712
			12:[quantity<973.5] yes=23,no=24,missing=23
				23:leaf=-0.0628862381
				24:leaf=0.0202043448
		6:[Unitprice<2.11460066] yes=13,no=14,missing=13
			13:leaf=-0.0208701249
			14:[WUnitprice<0.0759903267] yes=25,no=26,missing=25
				25:leaf=0.0154702319
				26:leaf=0.107389234
booster[80]:
0:[RiskH.office.id&importer.id<0.5] yes=1,no=2,missing=1
	1:[RiskH.office.id<0.5] yes=3,no=4,missing=3
		3:[WUnitprice<0.0195241496] yes=7,no=8,missing=7
			7:[fob.value<2220.5] yes=15,no=16,missing=15
				15:leaf=-0.00700572599
				16:leaf=-0.0434624217
			8:[WUnitprice<0.0654321313] yes=17,no=18,missing=17
				17:leaf=0.0275260657
				18:leaf=-0.0017586092
		4:[RiskH.HS6.Origin<0.5] yes=9,no=10,missing=9
			9:[FOBCIFRatio<0.970811367] yes=19,no=20,missing=19
				19:leaf=-0.0752421245
				20:leaf=0.0300913695
			10:leaf=0.0335066617
	2:[gross.weight<41274.5] yes=5,no=6,missing=5
		5:[gross.weight<27845] yes=11,no=12,missing=11
			11:[total.taxes<2811] yes=21,no=22,missing=21
				21:leaf=0.0434940793
				22:leaf=-0.00931002665
			12:[total.taxes<10763.5] yes=23,no=24,missing=23
				23:leaf=-0.0831902102
				24:leaf=0.0328340195
		6:[gross.weight<128004] yes=13,no=14,missing=13
			13:[fob.value<1825] yes=25,no=26,missing=25
				25:leaf=0.0130688129
				26:leaf=0.122405291
			14:[TaxRatio<1.16882443] yes=27,no=28,missing=27
				27:leaf=-0.00305922586
				28:leaf=0.117955878
booster[81]:
0:[RiskH.tariff.code<0.5] yes=1,no=2,missing=1
	1:[RiskH.quantity<0.5] yes=3,no=4,missing=3
		3:[quantity<3201.5] yes=7,no=8,missing=7
			7:[WUnitprice<1377.32788] yes=15,no=16,missing=15
				15:leaf=-0.00253368309
				16:leaf=0.0686740726
			8:[total.taxes<120.5] yes=17,no=18,missing=17
				17:leaf=0.0805893838
				18:leaf=-0.0810499564
		4:[quantity<229] yes=9,no=10,missing=9
			9:[Unitprice<58036.3633] yes=19,no=20,missing=19
				19:leaf=-0.00810326077
				20:leaf=0.0627263114
			10:[quantity<6904.5] yes=21,no=22,missing=21
				21:leaf=0.0241828915
				22:leaf=0.0932518393
	2:[cif.value<2567.5] yes=5,no=6,missing=5
		5:[cif.value<2044] yes=11,no=12,missing=11
			11:[fob.value<1292] yes=23,no=24,missing=23
				23:leaf=-0.0385032408
				24:leaf=0.0444619097
			12:[quantity<1179.5] yes=25,no=26,missing=25
				25:leaf=-0.0945183188
				26:leaf=0.0184623208
		6:[cif.value<2657.5] yes=13,no=14,missing=13
			13:[WUnitprice<1.69079709] yes=27,no=28,missing=27
				27:leaf=0.177029192
				28:leaf=0.00484463293
			14:[total.taxes<3007.5] yes=29,no=30,missing=29
				29:leaf=0.00607515173
				30:leaf=0.0458179899
booster[82]:
0:[RiskH.office.id&country<0.5] yes=1,no=2,missing=1
	1:[tariff.code<9.40400026e+09] yes=3,no=4,missing=3
		3:[total.taxes<76844.5] yes=7,no=8,missing=7
			7:[RiskH.HS2<0.5] yes=15,no=16,missing=15
				15:leaf=-0.00526003167
				16:leaf=0.0209633857
			8:[WUnitprice<1.62409306] yes=17,no=18,missing=17
				17:leaf=-0.0309199877
				18:leaf=0.106355034
		4:[FOBCIFRatio<0.715318918] yes=9,no=10,missing=9
			9:[SGD.DayofYear<147.5] yes=19,no=20,missing=19
				19:leaf=0.21615158
				20:leaf=0.0185495596
			10:[cif.value<65019.5] yes=21,no=22,missing=21
				21:leaf=0.0531126522
				22:leaf=-0.0855710804
	2:[FOBCIFRatio<0.694582522] yes=5,no=6,missing=5
		5:[Unitprice<536.263916] yes=11,no=12,missing=11
			11:[WUnitprice<0.0484965146] yes=23,no=24,missing=23
				23:leaf=-0.061100889
				24:leaf=0.101198457
			12:[Unitprice<2452.8335] yes=25,no=26,missing=25
				25:leaf=-0.0694870576
				26:leaf=0.0493516587
		6:[RiskH.office.id&importer.id<0.5] yes=13,no=14,missing=13
			13:[fob.value<1825] yes=27,no=28,missing=27
				27:leaf=-0.0437219255
				28:leaf=0.0144218327
			14:[FOBCIFRatio<0.726548076] yes=29,no=30,missing=29
				29:leaf=-0.0223390069
				30:leaf=0.0966509804
booster[83]:
0:[RiskH.office.id&HS6<0.5] yes=1,no=2,missing=1
	1:[WUnitprice<13.6407614] yes=3,no=4,missing=3
		3:[WUnitprice<2.20938683] yes=7,no=8,missing=7
			7:[total.taxes<340.5] yes=15,no=16,missing=15
				15:leaf=0.0411454998
				16:leaf=-0.00364469527
			8:[total.taxes<73903] yes=17,no=18,missing=17
				17:leaf=-0.0204967428
				18:leaf=0.0872302726
		4:[cif.value<69233] yes=9,no=10,missing=9
			9:[total.taxes<67649] yes=19,no=20,missing=19
				19:leaf=0.0262152404
				20:leaf=0.176119745
			10:[total.taxes<492.5] yes=21,no=22,missing=21
				21:leaf=0.0259386655
				22:leaf=-0.0154691776
	2:[gross.weight<42776.5] yes=5,no=6,missing=5
		5:[SGD.DayofYear<50.5] yes=11,no=12,missing=11
			11:[gross.weight<615.5] yes=23,no=24,missing=23
				23:leaf=0.125213906
				24:leaf=0.0324724801
			12:[Unitprice<458.406921] yes=25,no=26,missing=25
				25:leaf=-0.0221827533
				26:leaf=0.0237258077
		6:[gross.weight<149017] yes=13,no=14,missing=13
			13:[quantity<994.5] yes=27,no=28,missing=27
				27:leaf=0.101670459
				28:leaf=-0.0143598393
			14:[total.taxes<534.5] yes=29,no=30,missing=29
				29:leaf=0.0728607997
				30:leaf=-0.0364812054
booster[84]:
0:[RiskH.HS6.Origin<0.5] yes=1,no=2,missing=1
	1:[tariff.code<2.83844506e+09] yes=3,no=4,missing=3
		3:[FOBCIFRatio<0.581462562] yes=7,no=8,missing=7
			7:[total.taxes<949.5] yes=15,no=16,missing=15
				15:leaf=0.00288134092
				16:leaf=0.218844935
			8:[fob.value<1651.5] yes=17,no=18,missing=17
				17:leaf=0.0613186322
				18:leaf=0.00750204502
		4:[tariff.code<3.21515008e+09] yes=9,no=10,missing=9
			9:[SGD.DayofYear<23] yes=19,no=20,missing=19
				19:leaf=0.012085937
				20:leaf=-0.0783853456
			10:[tariff.code<3.81554483e+09] yes=21,no=22,missing=21
				21:leaf=0.0589916371
				22:leaf=-0.00268851337
	2:[RiskH.HS4<0.5] yes=5,no=6,missing=5
		5:[tariff.code<6.5580503e+09] yes=11,no=12,missing=11
			11:[tariff.code<4.81665024e+09] yes=23,no=24,missing=23
				23:leaf=0.0316097997
				24:leaf=-0.112750314
			12:[tariff.code<8.51249971e+09] yes=25,no=26,missing=25
				25:leaf=0.0802822411
				26:leaf=0.00676591322
		6:[SGD.DayofYear<35] yes=13,no=14,missing=13
			13:leaf=0.00897313654
			14:[WUnitprice<122.639847] yes=27,no=28,missing=27
				27:leaf=0.0982523859
				28:leaf=0.0248630773
booster[85]:
0:[RiskH.importer.id<0.5] yes=1,no=2,missing=1
	1:[gross.weight<549728] yes=3,no=4,missing=3
		3:[SGD.DayofYear<115.5] yes=7,no=8,missing=7
			7:[Unitprice<815800] yes=15,no=16,missing=15
				15:leaf=0.0053107678
				16:leaf=0.145918816
			8:[gross.weight<44650.5] yes=17,no=18,missing=17
				17:leaf=-0.0110949231
				18:leaf=0.0062215142
		4:[total.taxes<527.5] yes=9,no=10,missing=9
			9:[total.taxes<486.5] yes=19,no=20,missing=19
				19:leaf=-0.0724583417
				20:leaf=0.138036698
			10:[total.taxes<11266] yes=21,no=22,missing=21
				21:leaf=-0.0713141486
				22:leaf=0.0261355229
	2:[quantity<3246] yes=5,no=6,missing=5
		5:[WUnitprice<1385.3689] yes=11,no=12,missing=11
			11:[total.taxes<25114] yes=23,no=24,missing=23
				23:leaf=0.0181631912
				24:leaf=-0.0209800806
			12:[WUnitprice<2696.50635] yes=25,no=26,missing=25
				25:leaf=0.143100619
				26:leaf=0.0184713807
		6:[RiskH.quantity<0.5] yes=13,no=14,missing=13
			13:[TaxUnitquantity<4.84950352] yes=27,no=28,missing=27
				27:leaf=-0.0880325213
				28:leaf=0.0127943009
			14:[tariff.code<8.46729523e+09] yes=29,no=30,missing=29
				29:leaf=0.0950177461
				30:leaf=-0.00961948466
booster[86]:
0:[RiskH.office.id&importer.id<0.5] yes=1,no=2,missing=1
	1:[RiskH.office.id<0.5] yes=3,no=4,missing=3
		3:[gross.weight<24834.5] yes=7,no=8,missing=7
			7:[gross.weight<17503] yes=13,no=14,missing=13
				13:leaf=0.00100723293
				14:leaf=0.0277756602
			8:[gross.weight<49619] yes=15,no=16,missing=15
				15:leaf=-0.037977431
				16:leaf=0.002629061
		4:[gross.weight<111974] yes=9,no=10,missing=9
			9:[total.taxes<133] yes=17,no=18,missing=17
				17:leaf=0.00477292901
				18:leaf=-0.0756724253
			10:leaf=0.0213676486
	2:[RiskH.office.id<0.5] yes=5,no=6,missing=5
		5:[gross.weight<41274.5] yes=11,no=12,missing=11
			11:[gross.weight<27845] yes=19,no=20,missing=19
				19:leaf=0.0142419357
				20:leaf=-0.0606947131
			12:[gross.weight<128004] yes=21,no=22,missing=21
				21:leaf=0.105090715
				22:leaf=0.0158509985
		6:leaf=0.0992311612
booster[87]:
0:[WUnitprice<0.0205466226] yes=1,no=2,missing=1
	1:[cif.value<2825.5] yes=3,no=4,missing=3
		3:[total.taxes<760.5] yes=7,no=8,missing=7
			7:[TaxRatio<0.213767514] yes=15,no=16,missing=15
				15:leaf=-0.009758058
				16:leaf=-0.0684318915
			8:[tariff.code<8.51698483e+09] yes=17,no=18,missing=17
				17:leaf=-0.0223817918
				18:leaf=0.0320050493
		4:[FOBCIFRatio<0.970225692] yes=9,no=10,missing=9
			9:[TaxUnitquantity<7.00707531] yes=19,no=20,missing=19
				19:leaf=-0.00618395582
				20:leaf=-0.0590249375
			10:[tariff.code<8.70323712e+09] yes=21,no=22,missing=21
				21:leaf=-0.0542913675
				22:leaf=0.165306374
	2:[WUnitprice<0.0654321313] yes=5,no=6,missing=5
		5:[fob.value<7356.5] yes=11,no=12,missing=11
			11:[Unitprice<3.58333445] yes=23,no=24,missing=23
				23:leaf=-0.0207661968
				24:leaf=0.0524899364
			12:[cif.value<12214] yes=25,no=26,missing=25
				25:leaf=-0.0875697136
				26:leaf=0.0426954292
		6:[gross.weight<25947] yes=13,no=14,missing=13
			13:[gross.weight<6472.5] yes=27,no=28,missing=27
				27:leaf=-0.00150937424
				28:leaf=0.0154437665
			14:[gross.weight<44652] yes=29,no=30,missing=29
				29:leaf=-0.0406127051
				30:leaf=0.00902696326
booster[88]:
0:[RiskH.declarant.id<0.5] yes=1,no=2,missing=1
	1:[cif.value<1440.5] yes=3,no=4,missing=3
		3:[cif.value<1209.5] yes=7,no=8,missing=7
			7:leaf=-0.00884278119
			8:[quantity<45] yes=15,no=16,missing=15
				15:leaf=0.0420181416
				16:leaf=0.179534599
		4:[total.taxes<6035.5] yes=9,no=10,missing=9
			9:[total.taxes<3344.5] yes=17,no=18,missing=17
				17:leaf=0.000201086121
				18:leaf=-0.0329249725
			10:[tariff.code<8.71115469e+09] yes=19,no=20,missing=19
				19:leaf=0.00474749273
				20:leaf=0.0658242702
